{
  "title": "book_wg_2",
  "n": 2,
  "formula": "pred_weight_gain ~ metabolic_weight_Limousin + metabolic_weight_Simental + tdn_slobber_over_mw + total_tdn_mw_2 + day_diff_2",
  "independent_variables": [
    "metabolic_weight_Limousin",
    "metabolic_weight_Simental",
    "tdn_slobber_over_mw",
    "total_tdn_mw_2",
    "day_diff_2"
  ],
  "dependent_variable": "pred_weight_gain",
  "summary": {
    "r_squared": 0.43385199215255865,
    "adj_r_squared": 0.4151053693761534,
    "f_statistic": 23.142941388814222,
    "f_pvalue": 3.290521328103853e-17,
    "aic": 1081.4786708073611,
    "bic": 1099.816145639451,
    "n_observations": 157
  },
  "coefficients": {
    "Intercept": {
      "value": 52.25726152211695,
      "std_err": 6.321640752232471,
      "t_stat": 8.266407973857488,
      "p_value": 6.580197405945051e-14,
      "conf_int_lower": 39.766970527151756,
      "conf_int_upper": 64.74755251708214
    },
    "metabolic_weight_Limousin": {
      "value": -0.08250232553828954,
      "std_err": 0.036118737520184546,
      "t_stat": -2.2841973779450084,
      "p_value": 0.023753642114597052,
      "conf_int_lower": -0.15386568825999367,
      "conf_int_upper": -0.011138962816585413
    },
    "metabolic_weight_Simental": {
      "value": -0.12204497628100479,
      "std_err": 0.03896188964584987,
      "t_stat": -3.1324193305394448,
      "p_value": 0.002082721869122694,
      "conf_int_lower": -0.19902583591282247,
      "conf_int_upper": -0.04506411664918711
    },
    "tdn_slobber_over_mw": {
      "value": -37.31930752564133,
      "std_err": 7.037221081322119,
      "t_stat": -5.303131320499875,
      "p_value": 3.9761879341393335e-07,
      "conf_int_lower": -51.223441364720415,
      "conf_int_upper": -23.41517368656224
    },
    "total_tdn_mw_2": {
      "value": 17.261769736540007,
      "std_err": 1.8078692122757383,
      "t_stat": 9.548129709455566,
      "p_value": 3.399373250920351e-17,
      "conf_int_lower": 13.689783692538992,
      "conf_int_upper": 20.833755780541022
    },
    "day_diff_2": {
      "value": -0.052779400471583506,
      "std_err": 0.00871485423233259,
      "t_stat": -6.056257404256863,
      "p_value": 1.0598501427235904e-08,
      "conf_int_lower": -0.06999820008497462,
      "conf_int_upper": -0.03556060085819239
    }
  },
  "diagnostics": {
    "normality": {
      "anderson_darling_stat": 2.1384445820360156,
      "pvalue": 1.8676811382925585e-05
    },
    "breusch_pagan": {
      "lm_stat": 10.573455823122817,
      "lm_pvalue": 0.06052460076266795,
      "f_stat": 2.180740982813785,
      "f_pvalue": 0.0591941991055709
    },
    "white_test": {
      "stat": 20.279389223267103,
      "pvalue": 0.3779455477942685,
      "f_stat": 1.0695173817010877,
      "f_pvalue": 0.3888303072750571
    },
    "durbin_watson": 1.5266400974386727,
    "vif": {
      "Intercept": 113.42574814206705,
      "metabolic_weight_Limousin": 7.535323869402935,
      "metabolic_weight_Simental": 7.0867727069364195,
      "tdn_slobber_over_mw": 3.185161529753378,
      "total_tdn_mw_2": 3.2691642253457416,
      "day_diff_2": 1.8187009381276864
    },
    "reset": {
      "fvalue": NaN,
      "pvalue": 0.7321838117715991
    },
    "influence": {
      "cooks_distance_max": 0.17178423489160996,
      "cooks_distance_mean": 0.007677641629545935,
      "leverage_max": 0.22968061180070337,
      "leverage_mean": 0.03821656050955413,
      "cooks_distance_array": [
        0.09378907625798709,
        0.004802432294406922,
        0.011214198851599591,
        0.002027011104325559,
        0.0012885270799732923,
        0.0006831234200268515,
        1.9184693733364294e-05,
        0.0015405522507645861,
        0.006347279633842316,
        0.000334588912524509,
        2.0849106392299105e-05,
        2.7459463306332873e-05,
        1.0867057896818797e-05,
        0.011827127816651415,
        0.0015336718063073786,
        0.01686894604193389,
        0.007170993012064402,
        0.007722794440253666,
        0.007855002626668432,
        0.004980855147647609,
        0.0026835672377924368,
        0.00022431574595670084,
        0.0005991660544913932,
        0.0005862326490737638,
        0.0007142576520080274,
        0.0023938980506718593,
        0.05804478989459071,
        0.00038775366002472976,
        0.0011390822542744307,
        0.019121490565831626,
        0.0708275345883282,
        0.01107255303627707,
        0.00021871411376227725,
        0.002546875599278866,
        5.4411523561528175e-05,
        6.866945077935014e-05,
        0.016421345652694243,
        0.0005702983797848337,
        0.001106986764129744,
        0.0029155420284767727,
        5.010465958967107e-05,
        5.433542121268361e-05,
        5.77975343115752e-07,
        0.001217855957882328,
        0.0057070270639503875,
        1.826759478700647e-07,
        1.337003525284129e-05,
        0.0009930821771819748,
        0.0018674924890580346,
        0.02034903920271722,
        0.0025401946219659357,
        7.375053113372625e-05,
        0.0028891516765852617,
        0.07164662310130226,
        0.17178423489160996,
        0.011556782756249405,
        0.005146119614209463,
        0.0007876445414576223,
        0.0040369822819199454,
        0.0012701007092689775,
        3.401898610282822e-05,
        0.0007693515036736169,
        0.001223607891368992,
        0.00039894841684444957,
        0.008004681013178685,
        0.0009311829671542716,
        0.00011146222432518111,
        0.00022798686440139598,
        0.005783687357671766,
        0.0067289277148429374,
        0.023482952538849883,
        0.0047961120909751145,
        0.004957577895247852,
        0.002340978729484094,
        0.00040875679048040523,
        0.0006427159046974471,
        0.0014070446974271949,
        0.00022825297489168975,
        0.0020422225226191778,
        0.00105202779763655,
        0.0009968260101439741,
        0.0002584172555190874,
        0.004426284148984979,
        0.002279890167893001,
        0.0005201206771429955,
        0.0008161762872256002,
        0.0005556399692514025,
        0.00010075719060011127,
        0.0002687815376081766,
        0.0018034808834184758,
        0.0008911737932824627,
        1.3236029631607155e-05,
        1.4250336700617165e-05,
        4.884718045771022e-05,
        0.0010778061946345892,
        0.0026709631805076624,
        0.05029112276456453,
        0.01678942308606301,
        0.003011339333594139,
        0.0038992793300021934,
        0.0019099637228238403,
        0.0003185468728209157,
        0.0008112227986526248,
        4.927094075099615e-05,
        0.0021409263768162315,
        0.0012923957157286435,
        0.00018264476257135633,
        1.2041116656600222e-06,
        0.08489138345079382,
        0.0011245232061244518,
        0.0026787293314551658,
        0.00014976932608228157,
        5.512641850531094e-08,
        0.00041079206682127035,
        0.0007710274921585544,
        0.00011120579994806894,
        0.00248168876776981,
        0.0001919597591326188,
        0.00039185464132511776,
        0.0005056005828426497,
        7.018338590913684e-05,
        0.006764267215825256,
        0.002532371914342808,
        0.0012370398192573574,
        8.457277446456384e-05,
        3.6642355857845025e-07,
        1.068758434088627e-05,
        0.0007183158011984793,
        1.4321634853039615e-05,
        3.1192185020832504e-07,
        0.00015196105318254763,
        0.006070346701375969,
        0.005744705612913714,
        0.01607116387930655,
        0.0029954056798907366,
        0.002426541134968408,
        0.0022996933340418925,
        1.890392913238208e-05,
        1.9422362394907096e-06,
        0.0009241418816392577,
        0.0006008168905661068,
        0.001999555143041,
        8.45688961569469e-05,
        0.00047110327255275847,
        0.0032860229621264818,
        0.0020610791862676306,
        0.004721900610286973,
        0.1414970546289688,
        0.00014380897984771058,
        1.477018272961616e-05,
        0.023306877488548806,
        0.009483392199168486,
        0.009698891823138725,
        0.004209839707990851,
        0.014674104676801253,
        0.006257265144590449,
        0.00427368473190194
      ],
      "leverage_array": [
        0.07828325720798524,
        0.01858531601985513,
        0.05096090693061378,
        0.016389864011611743,
        0.016609253233970542,
        0.016019679846189964,
        0.016789787312004603,
        0.03375283560777036,
        0.02459658685363049,
        0.015183304423344925,
        0.015911632462904456,
        0.01804580534730886,
        0.030045604860156214,
        0.04721493385208299,
        0.015350637370957335,
        0.05173403315561384,
        0.015461877240234595,
        0.015603898869861278,
        0.015614440148658322,
        0.016659066741673844,
        0.03286161549179104,
        0.023127799165472182,
        0.01455687867491557,
        0.01583528156552843,
        0.016664718479697475,
        0.027178472581748013,
        0.12764822351170454,
        0.018243992093343427,
        0.019538842472878168,
        0.07278232429430728,
        0.22968061180070337,
        0.02993065381273128,
        0.02866721059270904,
        0.04737421758091891,
        0.035437750710829545,
        0.03276657871733462,
        0.07927939137248599,
        0.05068463196475206,
        0.03823396149765735,
        0.0371789486766848,
        0.07935403578602743,
        0.05061844648643746,
        0.03745304795355413,
        0.03151803862260731,
        0.0809208761698949,
        0.04321063910668922,
        0.03239492155012326,
        0.028386228941068625,
        0.07623869455475148,
        0.05066688208615274,
        0.04261954897358876,
        0.038545705152493864,
        0.0961546424695968,
        0.050468998838640006,
        0.03441871069222185,
        0.03549399151177737,
        0.07890048277122307,
        0.03713932445983729,
        0.05960269457427799,
        0.0370059145069039,
        0.04046360944636893,
        0.04168280576351805,
        0.04387392961452491,
        0.06007719932950317,
        0.050750864046516644,
        0.04619979502723216,
        0.04969161875138592,
        0.051993678912667034,
        0.06828120696860533,
        0.023879341210353868,
        0.04947073743351346,
        0.02066890689079745,
        0.016220293367723418,
        0.016246633949138996,
        0.01808304400495558,
        0.027355558059970943,
        0.034492862195418555,
        0.0233368365862238,
        0.021758122087164614,
        0.02449246150420443,
        0.03923792145208092,
        0.03597486475289539,
        0.02745525567897864,
        0.04547267481245232,
        0.01920740617851495,
        0.017637908520471837,
        0.016692592204493442,
        0.014757734921571546,
        0.02417570139967347,
        0.02801038232993618,
        0.015123513082437215,
        0.014805459678427528,
        0.01616335268981398,
        0.031047443214733877,
        0.027362284946498512,
        0.018114036822659114,
        0.036671577070173475,
        0.019215995016700474,
        0.017662008969033492,
        0.02041660404921947,
        0.02194832418957244,
        0.0321181187141025,
        0.03888789142962007,
        0.03142697253376034,
        0.02985497315403306,
        0.03185686401983907,
        0.05778794472574325,
        0.05502007439678609,
        0.19499660427331672,
        0.020094807274114973,
        0.04381031409386174,
        0.026679775133284102,
        0.018412808240674563,
        0.02245918151028989,
        0.02423157174547223,
        0.035271901924638055,
        0.04433030685893244,
        0.03312092637994726,
        0.0318418356771378,
        0.03505640240413488,
        0.05488536549163907,
        0.05985924922725957,
        0.0409112467698511,
        0.058176920566975585,
        0.0369379310691164,
        0.04024307034479494,
        0.04225981221059016,
        0.045412988531173266,
        0.05322660740109987,
        0.05951752371621631,
        0.051489844810704385,
        0.04938105098667049,
        0.051137696094453684,
        0.07307205693368697,
        0.05886833188601892,
        0.019293309254773426,
        0.04214380608599659,
        0.016079898849115707,
        0.017148345038568342,
        0.01732804615494389,
        0.021005752432369997,
        0.03652630348823088,
        0.019455785428275398,
        0.02200210079102658,
        0.018179920709200575,
        0.019195172947881083,
        0.03201299368646966,
        0.07435187100473745,
        0.016725247706641917,
        0.03421024879774911,
        0.014388681067907779,
        0.016537732022913056,
        0.11478391639122715,
        0.020101167400691775,
        0.04699785666185226,
        0.016272279115569936,
        0.018851395541301358
      ],
      "studentized_resid_array": [
        -2.623715495458696,
        -1.2356740694564916,
        -1.120340039066854,
        -0.8535654609703424,
        -0.6753467627406748,
        -0.5005079773273294,
        -0.08183149834948264,
        0.513145872799189,
        1.2310170622652166,
        0.35980768845120736,
        0.08766925375660646,
        0.09437330767979135,
        -0.045727449676614774,
        -1.1983932366595784,
        -0.7672326540404524,
        -1.3659603681500696,
        -1.6648825657611066,
        -1.7208118976161428,
        -1.7351649505433546,
        -1.3315675248005958,
        -0.6871814209542454,
        0.23768192110849914,
        -0.4920829191859612,
        -0.4663407646234797,
        -0.5016213468408223,
        -0.7158635805581196,
        -1.549896868363003,
        -0.3528033453000819,
        0.5843457059127437,
        1.2108313409077613,
        -1.1955464729881824,
        -1.473054061088046,
        -0.21019696630639423,
        -0.5530560284475942,
        -0.09395568416310807,
        0.10992137628111447,
        1.0702191651644228,
        -0.2523731459303773,
        -0.407619041116597,
        -0.67184505128096,
        0.05886249575319369,
        0.07793796857433313,
        0.009409248602647184,
        -0.4726286583310497,
        0.6223632115279786,
        0.004910054634500638,
        -0.04878801023818572,
        -0.45041396274762824,
        0.3674089232583098,
        1.5190319792995817,
        0.5838442886135274,
        0.1047146763464544,
        0.4025449133590313,
        2.913578500817908,
        -5.960456718640094,
        1.3767434457411596,
        0.5991080440439934,
        0.34901083055566606,
        0.6169276288004619,
        0.4441334334682211,
        0.06934239532661245,
        -0.32480598571997593,
        -0.3988764821504259,
        0.1929017951011949,
        0.9474774467153441,
        0.33862959604998094,
        0.11272123399746017,
        -0.1574178247192922,
        -0.686924555497698,
        1.2874568297407722,
        1.6548023628010042,
        1.169104014797653,
        1.3467815470854545,
        0.921763386508263,
        0.3638802449518747,
        0.36922732715734913,
        0.4848863435608566,
        0.23865737211702015,
        -0.7411232209300194,
        -0.5001581223639175,
        -0.3815997605783824,
        0.20318792171046943,
        -0.969731637817944,
        -0.5345914430338699,
        -0.3980781602928029,
        -0.5209902591345286,
        -0.4419721282864046,
        -0.2002582967606065,
        0.254344529116561,
        0.6115056951676087,
        0.5888163396041421,
        0.07245515609006067,
        -0.07190326335054693,
        -0.09532438700162438,
        0.47822614581936046,
        0.9316278681917879,
        2.882769223185301,
        2.299474796390205,
        1.0024737672986426,
        1.05992269063788,
        0.7134461048626862,
        0.23924255276562176,
        -0.34582448858169496,
        -0.0951384832724709,
        -0.6448292692637483,
        0.48421469643494747,
        0.13323483640555803,
        -0.011102404501674532,
        -1.4554424544859457,
        0.5723224257489856,
        0.590998102680876,
        0.18047961642764135,
        -0.004185208721348031,
        -0.3265642364799336,
        -0.4304456877061474,
        0.13465136823284252,
        0.5652910197404545,
        0.18277680383932834,
        0.26654602649893605,
        0.28808720427948054,
        -0.0848739336672345,
        0.7974300015590129,
        0.5955488776404169,
        0.3456263015546712,
        0.11464574808125125,
        -0.007217048517091555,
        0.037995723858191235,
        -0.30008102161742795,
        -0.03896636612655085,
        0.005420116855391183,
        -0.12917643193929082,
        -0.8365140560470117,
        -0.798765625915564,
        -1.1068020359528798,
        -0.5347595152349072,
        0.8595273396847796,
        0.5587306293231522,
        0.08303421084810367,
        -0.025758326759351118,
        -0.5594796016024204,
        -0.40875825797129706,
        -0.5612703620247544,
        -0.15939845126764415,
        -0.35343413061579354,
        -1.0321069207143756,
        -0.793936914357287,
        -0.9251204187428503,
        3.3600147201247825,
        0.22451735091786978,
        0.049853137175127044,
        -3.1874889871054397,
        1.8542867050840097,
        0.6686892072490653,
        1.1105127207495757,
        1.339674260747427,
        1.5129585237181986,
        1.156531337749199
      ]
    }
  },
  "cross_validation": null
}