{
  "title": "weight_dmi_adg",
  "n": 2,
  "formula": "pred_adgLatest_average ~ weight + avg_real_dm_inake_per_weight_per_day_c + avg_real_dm_inake_per_weight_per_day_c2",
  "independent_variables": [
    "weight",
    "avg_real_dm_inake_per_weight_per_day_c",
    "avg_real_dm_inake_per_weight_per_day_c2"
  ],
  "dependent_variable": "pred_adgLatest_average",
  "summary": {
    "r_squared": 0.15823758346091765,
    "adj_r_squared": 0.1417324380385827,
    "f_statistic": 9.587166875051505,
    "f_pvalue": 7.713797181604237e-06,
    "aic": 341.77228356141825,
    "bic": 353.9972667828115,
    "n_observations": 157
  },
  "coefficients": {
    "Intercept": {
      "value": 0.6931412446359148,
      "std_err": 0.2529965397842451,
      "t_stat": 2.739726184504437,
      "p_value": 0.0068802291335106685,
      "conf_int_lower": 0.193323730910544,
      "conf_int_upper": 1.1929587583612855
    },
    "weight": {
      "value": 0.0005728673059794668,
      "std_err": 0.0004816948332057804,
      "t_stat": 1.1892743423609393,
      "p_value": 0.2361741250897897,
      "conf_int_lower": -0.00037876434128570745,
      "conf_int_upper": 0.0015244989532446412
    },
    "avg_real_dm_inake_per_weight_per_day_c": {
      "value": 1.7578846928422829,
      "std_err": 0.336138182995704,
      "t_stat": 5.229648941324673,
      "p_value": 5.497226554754535e-07,
      "conf_int_lower": 1.0938133540154626,
      "conf_int_upper": 2.421956031669103
    },
    "avg_real_dm_inake_per_weight_per_day_c2": {
      "value": 0.23837177624887632,
      "std_err": 1.4202241954574124,
      "t_stat": 0.1678409486412839,
      "p_value": 0.8669300580570056,
      "conf_int_lower": -2.567409389420425,
      "conf_int_upper": 3.044152941918177
    }
  },
  "diagnostics": {
    "normality": {
      "anderson_darling_stat": 0.4956339778585743,
      "pvalue": 0.21103048823208817
    },
    "breusch_pagan": {
      "lm_stat": 5.903815435456044,
      "lm_pvalue": 0.11638474613055869,
      "f_stat": 1.9927345490291917,
      "f_pvalue": 0.11742207303635653
    },
    "white_test": {
      "stat": 10.01653674124143,
      "pvalue": 0.26386717072782917,
      "f_stat": 1.2607263810809983,
      "f_pvalue": 0.2683681623765053
    },
    "durbin_watson": 2.5519033394540482,
    "vif": {
      "Intercept": 19.957758036721543,
      "weight": 1.0866278106508303,
      "avg_real_dm_inake_per_weight_per_day_c": 1.1239659176384678,
      "avg_real_dm_inake_per_weight_per_day_c2": 1.0375327972835446
    },
    "reset": {
      "fvalue": NaN,
      "pvalue": 0.14166530042767986
    },
    "influence": {
      "cooks_distance_max": 0.10336906867407276,
      "cooks_distance_mean": 0.007381848287377119,
      "leverage_max": 0.12222656804870018,
      "leverage_mean": 0.025477707006369425,
      "cooks_distance_array": [
        0.0031497002359620564,
        0.004560750540706346,
        0.05660060628644573,
        0.004347955340651457,
        0.002351356149561424,
        7.032866583780265e-05,
        1.586316802682829e-05,
        0.02418755021183538,
        0.0069004301215001155,
        5.5853476140520554e-05,
        0.00027217446452769737,
        0.0010029569281125954,
        0.0002382639655069219,
        0.00013785234730839273,
        0.000769358573450934,
        0.08300050558902779,
        0.013639442750492276,
        0.003201877197185432,
        0.010995543013409253,
        0.001027334790165281,
        0.00010568173636721383,
        0.0025214074684926694,
        0.0007620564160830609,
        0.0013729852148618709,
        0.002149166532038566,
        0.005671138549268132,
        0.0002795898162491987,
        0.005223124597683765,
        0.002451834035512088,
        0.00017486461083224416,
        0.026097599453156973,
        0.00269162254622289,
        0.001795835177791614,
        0.013359045379987017,
        0.0005776852682996893,
        0.001631156312810798,
        0.00118690939233409,
        0.00285714182221411,
        0.010123772241968932,
        0.0011401123899798427,
        0.00024426182401857024,
        0.039782693131358786,
        0.026439754744721707,
        0.00161264340833708,
        0.00017083304368643328,
        0.006941990845834266,
        0.02089165603329682,
        6.59498382498105e-05,
        0.0005107689346356676,
        0.05242687073593992,
        0.018360317009519334,
        0.004032800980992125,
        0.01481372916448601,
        0.04033048784949063,
        0.0575969655015114,
        0.0005942354418398806,
        0.0013500640927245245,
        0.0001256537380778168,
        0.004793239211584704,
        0.000155862572301669,
        0.0010907165590881784,
        0.007724813991225955,
        0.003362826091792447,
        0.0006436077553920146,
        0.0015178387045563539,
        4.39320376958511e-05,
        0.00046892199905612637,
        1.1447335761956823e-05,
        0.021336276818109266,
        0.0005677036180392589,
        0.10336906867407276,
        0.0035732202507125165,
        0.009679684980414422,
        0.0021647401996110743,
        7.03164002644463e-07,
        0.0017532466546318515,
        0.003520721210515076,
        0.0038922375521628976,
        0.002347021892731706,
        0.0003901403990287153,
        0.001941010277328996,
        0.0009161328019973648,
        0.0004292638304653645,
        0.013007828119219581,
        0.015996068685221625,
        0.0001269988384836571,
        9.969672394305057e-05,
        1.11187585384937e-05,
        0.008824188910997467,
        0.0036705734993519147,
        0.008502824687650666,
        0.004013690103365976,
        0.00030880873983350586,
        0.00019085195941190124,
        0.003061082132046296,
        0.0015524501546717942,
        0.02150022690800564,
        0.013323742086705965,
        0.00010077191856733209,
        0.003994241194740833,
        0.0022753670631880246,
        0.0031741273616673242,
        0.004122273223863154,
        0.00045001792462034544,
        0.006226926749891613,
        0.0043601314788198915,
        0.0017400102578941379,
        0.00758856883508344,
        0.001392056661614233,
        0.007676910826263137,
        0.006472137157856282,
        0.0041492840507347355,
        5.021767871156173e-05,
        7.111902231640515e-05,
        0.0001232217989744764,
        0.012183971049122848,
        0.07945599965579164,
        0.016384650537579225,
        0.0015696228525166008,
        0.001622652512914571,
        6.65488658409e-05,
        0.0039521175332583,
        0.014548028533011506,
        0.002121650973116156,
        0.005172676541892303,
        0.00015066908519237014,
        0.0005495817154384437,
        3.6224380420540284e-06,
        0.00021943304951883616,
        0.006537713547020087,
        0.0003645276095627923,
        0.007991675072351602,
        0.0018261768070478373,
        5.694782541854265e-05,
        0.0037733940242002527,
        0.007696553378452327,
        0.019108843439243996,
        0.0005109748082099937,
        0.003001341398677404,
        0.0012110366975711508,
        0.004491194616295294,
        0.0008112605110257164,
        0.0002065337532094697,
        0.003401620244176973,
        0.009375151533449717,
        4.444336486076527e-05,
        0.004154158416148128,
        0.012625440721693058,
        9.174877467312125e-10,
        0.0013672517627052441,
        0.0052942680890593775,
        0.004140621285974358,
        0.0007427252025786459,
        0.009443707549258589,
        6.656828207020437e-06,
        0.0006952565597378233,
        0.003227458620084482
      ],
      "leverage_array": [
        0.017041244485331366,
        0.015385396902032323,
        0.12222656804870018,
        0.012125621038598919,
        0.012533076663055651,
        0.011321388094457529,
        0.01018134099602747,
        0.0356998455667439,
        0.07681910193542964,
        0.011039033410855987,
        0.012669909148159457,
        0.014109954302999935,
        0.014954243303200002,
        0.013013916231094198,
        0.014256233475849164,
        0.09544945405141787,
        0.011634629786891356,
        0.01155822327279435,
        0.011532765944353658,
        0.010487858993721257,
        0.03223582647307449,
        0.061444762340552427,
        0.010818825004391349,
        0.01125814362865324,
        0.012049899831204105,
        0.014024352233189305,
        0.02491695593323491,
        0.016541781101582196,
        0.015472819063499505,
        0.01355542722666706,
        0.03486028363378179,
        0.023495540353982044,
        0.020925971708451972,
        0.04594996166977789,
        0.02948713364826227,
        0.025943053887120267,
        0.023670299160847542,
        0.04439634950184359,
        0.030567669213690106,
        0.029536731862071355,
        0.027816309038296204,
        0.06219913976530038,
        0.03012416059000704,
        0.026752472676181055,
        0.02583950177675769,
        0.045414790521287426,
        0.02303430812503653,
        0.022557703363831384,
        0.020884836799761053,
        0.03976091491687105,
        0.0243222108468856,
        0.022523257923714343,
        0.021021553044099795,
        0.05194642251988803,
        0.027384082200801754,
        0.02662620477960093,
        0.0259251879078559,
        0.01898254241816132,
        0.05411930628801309,
        0.012243575316089798,
        0.011927743557760433,
        0.010911809648398283,
        0.010783835455331962,
        0.030226239372913778,
        0.040974798639310916,
        0.009990233775085908,
        0.01179472908788915,
        0.012353696876752267,
        0.013406535619842893,
        0.015829887243835106,
        0.10850209725659847,
        0.023245374184533363,
        0.011740279676023329,
        0.012109997239096117,
        0.01254617901466629,
        0.014119367998702852,
        0.06419418190520984,
        0.019266740877035907,
        0.019238648500080283,
        0.02009709857241772,
        0.022627801075309758,
        0.02376063995413664,
        0.018650264587037113,
        0.09378006586774007,
        0.01711228798582383,
        0.013606640896901681,
        0.012354650313138898,
        0.011000283559865189,
        0.01281651128023438,
        0.06054438736170116,
        0.011876895631375275,
        0.011823058753005777,
        0.012894678856669143,
        0.014356187649935242,
        0.015377334845151414,
        0.012873569244348338,
        0.04191765636403711,
        0.01888894497970025,
        0.014643769825429295,
        0.016296173076960373,
        0.018176764375223052,
        0.01830951895505443,
        0.05508913533551156,
        0.02218638574039325,
        0.027340613088505137,
        0.02938551512628807,
        0.036819572970392477,
        0.03950859274908898,
        0.011312952897611476,
        0.0110032350345041,
        0.04995825312670643,
        0.03372150163039624,
        0.016378824146774697,
        0.019165285306461815,
        0.02150710299291948,
        0.02178443139500931,
        0.08928031221685609,
        0.021974174910771267,
        0.0296156420870754,
        0.03191439554975441,
        0.037483036489547886,
        0.04214240570605615,
        0.016318363865931898,
        0.04784804355897844,
        0.013199716273717329,
        0.011864101905053475,
        0.011077162326939661,
        0.0115852935938262,
        0.011810115947498362,
        0.062246744372094924,
        0.016722047635967116,
        0.011499815045414497,
        0.011451872278115992,
        0.013126603004392926,
        0.01300716356695561,
        0.0213917831286954,
        0.053625517637556734,
        0.012314160211703604,
        0.012380530749993863,
        0.012534033038906874,
        0.010033410356815,
        0.03809522169113454,
        0.01896105241338896,
        0.02191525498671894,
        0.016475103433371587,
        0.0154081903761643,
        0.01690697860402064,
        0.01583799347952233,
        0.01665394340997789,
        0.032247621522330405,
        0.011038553126289251,
        0.01165352128027179,
        0.013038350393328716,
        0.01139682417518146,
        0.07519303785246928,
        0.01570755089326933,
        0.016245321477082603
      ],
      "studentized_resid_array": [
        0.8517095846997067,
        -1.081101201114901,
        -1.2777473034138294,
        -1.1919768392622225,
        0.8601060488853549,
        -0.1562373498142189,
        0.0782861829437112,
        1.6252345275669438,
        0.5746775571091008,
        0.14102095063516873,
        0.29039868237184946,
        -0.5281981275360856,
        0.24978730107641653,
        -0.2038562490491141,
        0.46010007724397994,
        -1.7864387022639512,
        -2.179046052017499,
        1.0468838396394455,
        -1.9595033382267237,
        0.6214127727225702,
        0.11228957093209771,
        0.3914117257489773,
        -0.5266758734944421,
        -0.6933183624033882,
        0.8387249051072794,
        -1.2653429525800868,
        0.20854615245874683,
        -1.1153936852178141,
        0.7889840478498419,
        -0.22491013650473454,
        -1.710712800511585,
        -0.6677187265620689,
        -0.5784712578959298,
        -1.053700472401438,
        -0.2749438799591057,
        0.4937231032709897,
        -0.44135631124064234,
        0.4947509673626054,
        -1.1343191378662911,
        -0.38601217486722034,
        -0.18420726596101636,
        1.5561393169278888,
        -1.8600412341623391,
        0.4832126011882228,
        0.15999329011647534,
        0.7629335955597791,
        -1.898602853960689,
        0.10656811616549344,
        -0.3085713784074325,
        2.281151172665294,
        -1.7275072537980896,
        0.8358780969718026,
        -1.6708777171567428,
        1.7269540659860492,
        -2.9306444570557875,
        0.29389615277874714,
        -0.4492691823721878,
        0.16065410529035304,
        -0.5776154634905313,
        0.22357291720301906,
        0.5999164609038188,
        -1.6835698962635968,
        1.1116692492504443,
        0.2865346342343996,
        -0.37590426635929713,
        0.13153864952971728,
        0.3953294157929158,
        0.060306723177032326,
        -2.5508102477056216,
        0.37468261715847206,
        1.8578834215317281,
        -0.773952823970865,
        1.8188994179564102,
        0.8396457231771888,
        -0.014829870566798523,
        0.6985994205880495,
        0.4519168080526503,
        0.8896204610878649,
        -0.6906203155451593,
        -0.27501057616333774,
        -0.5778369192697277,
        0.386944050762378,
        0.29968561382164166,
        0.7079209685283914,
        -1.9341502802682324,
        0.19129685477550973,
        -0.17798239679739467,
        0.06302836512335405,
        1.6582528792546816,
        -0.47609958793777657,
        1.692370122020133,
        -1.1596936690370268,
        -0.3065925464664065,
        0.22822815677929606,
        0.8848171394927574,
        0.6888563371748107,
        1.4064956237135122,
        1.6735519165806365,
        0.16416649368818537,
        0.9819416988117239,
        0.6999854797823084,
        0.8242052525095308,
        -0.5305651039234073,
        0.28081374769177314,
        -0.9409802203533919,
        0.7579345955062157,
        0.4255543063335118,
        -0.8582955113964192,
        -0.6964143662332871,
        1.6710505971174412,
        -0.7004828457720423,
        0.6884404735782486,
        -0.1094773023922078,
        0.1202707160640751,
        0.1492689770673523,
        1.4851594809682895,
        -1.8139890600526412,
        1.7187926508538471,
        -0.45238397904019334,
        0.4425496672038539,
        0.08240867252852535,
        -0.5981668889241942,
        1.8885724753266482,
        -0.40983014586834277,
        -1.2459556624511925,
        0.22334709432280492,
        0.4418428940416491,
        -0.03504486481076197,
        0.27018079434496906,
        -0.6264188945455514,
        0.29193517812314923,
        -1.6672595569923299,
        -0.7931127319381142,
        -0.13044381726819648,
        -1.0707040979893065,
        1.1883469695695608,
        -1.1627651262209406,
        -0.4037807639616639,
        0.9784811231790573,
        -0.616513646796648,
        1.3347605633825506,
        -0.28538645239236876,
        -0.20609818708808242,
        0.7782650815262184,
        -1.5023620403762465,
        -0.10623752761554754,
        -0.9828507222495585,
        1.7840734428980598,
        0.00046398170761966884,
        -0.4040142297297587,
        -1.3815042603714107,
        1.1867730385807003,
        0.4730187750371068,
        1.8238851159755343,
        -0.018037524891850946,
        0.41632638512298503,
        0.8835437275048671
      ]
    }
  },
  "cross_validation": {
    "mean_r2": -0.08515698044954441,
    "std_r2": 0.24113151472368388,
    "mean_mae": 0.5977561776574014,
    "std_mae": 0.08559160498044048,
    "mean_rmse": 0.7406955854376137,
    "std_rmse": 0.09787174048767804,
    "fold_metrics": {
      "r2": [
        0.034249489156411794,
        -0.540515434390965,
        -0.013931857093767652,
        0.16762164166055715,
        -0.07320874157995827
      ],
      "mae": [
        0.4600053089979613,
        0.7092443138083687,
        0.5501890121955862,
        0.6237934947870232,
        0.6455487584980683
      ],
      "rmse": [
        0.5786216846942022,
        0.8126842193973427,
        0.680141194712731,
        0.7892657621787086,
        0.842765066205084
      ]
    },
    "n_splits": 5
  }
}