{
  "title": "naive_adg",
  "n": 2,
  "formula": "pred_adgLatest_average ~ originWeight + metabolic_weight + per_slobber_dm_log + avg_real_dm_inake_per_weight_per_day_log + day_diff",
  "independent_variables": [
    "originWeight",
    "metabolic_weight",
    "per_slobber_dm_log",
    "avg_real_dm_inake_per_weight_per_day_log",
    "day_diff"
  ],
  "dependent_variable": "pred_adgLatest_average",
  "summary": {
    "r_squared": 0.24117729120712783,
    "adj_r_squared": 0.21605071144577448,
    "f_statistic": 9.598492651915844,
    "f_pvalue": 5.682970873512973e-08,
    "aic": 329.4867294630959,
    "bic": 347.8242042951858,
    "n_observations": 157
  },
  "coefficients": {
    "Intercept": {
      "value": -1.7717661560668008,
      "std_err": 1.1666038992687384,
      "t_stat": -1.5187384142787417,
      "p_value": 0.1309193456607237,
      "conf_int_lower": -4.076740884752832,
      "conf_int_upper": 0.5332085726192308
    },
    "originWeight": {
      "value": 0.005268260105370634,
      "std_err": 0.0021214961749466948,
      "t_stat": 2.4832757973287443,
      "p_value": 0.014111407421986062,
      "conf_int_lower": 0.0010766102460469992,
      "conf_int_upper": 0.00945990996469427
    },
    "metabolic_weight": {
      "value": -0.007740305089193895,
      "std_err": 0.0050332178787752015,
      "t_stat": -1.5378442331762208,
      "p_value": 0.12617954884769741,
      "conf_int_lower": -0.017684931557371893,
      "conf_int_upper": 0.002204321378984103
    },
    "per_slobber_dm_log": {
      "value": -1.3846654390251574,
      "std_err": 0.8419653096949862,
      "t_stat": -1.6445635266455003,
      "p_value": 0.10214012970940418,
      "conf_int_lower": -3.048219591804644,
      "conf_int_upper": 0.278888713754329
    },
    "avg_real_dm_inake_per_weight_per_day_log": {
      "value": 2.341842815391616,
      "std_err": 0.9222622603714346,
      "t_stat": 2.5392373905102175,
      "p_value": 0.012121125994439593,
      "conf_int_lower": 0.5196380338804949,
      "conf_int_upper": 4.164047596902737
    },
    "day_diff": {
      "value": -0.05098878506508589,
      "std_err": 0.029218750322784325,
      "t_stat": -1.7450706995269962,
      "p_value": 0.08300691393639306,
      "conf_int_lower": -0.10871916050787389,
      "conf_int_upper": 0.006741590377702111
    }
  },
  "diagnostics": {
    "normality": {
      "anderson_darling_stat": 0.46318094658477094,
      "pvalue": 0.2533837174525379
    },
    "breusch_pagan": {
      "lm_stat": 4.4554109810475415,
      "lm_pvalue": 0.4858713708260063,
      "f_stat": 0.8820595505417653,
      "f_pvalue": 0.4947300318153923
    },
    "white_test": {
      "stat": 22.507830178692803,
      "pvalue": 0.3136018070669497,
      "f_stat": 1.1380085949870908,
      "f_pvalue": 0.3191173040864017
    },
    "durbin_watson": 2.582837971984315,
    "vif": {
      "Intercept": 464.58391140193027,
      "originWeight": 3.275265513239192,
      "metabolic_weight": 3.2916586877081677,
      "per_slobber_dm_log": 1.1540546900448634,
      "avg_real_dm_inake_per_weight_per_day_log": 1.5914148748914299,
      "day_diff": 1.1206190291713254
    },
    "reset": {
      "fvalue": NaN,
      "pvalue": 0.8321680761686576
    },
    "influence": {
      "cooks_distance_max": 0.06246103504435062,
      "cooks_distance_mean": 0.006386758607128781,
      "leverage_max": 0.3644326192187106,
      "leverage_mean": 0.03821656050955417,
      "cooks_distance_array": [
        0.0018229170372868276,
        0.008322058804550742,
        0.009432283455465578,
        0.009059666059183475,
        0.0010268057096791362,
        0.0005941499692378958,
        0.00032821860225294307,
        0.010170341106009449,
        0.001885244418180627,
        2.501167096892348e-05,
        0.00031038410059579214,
        0.0006312378060827206,
        0.0017243868777928595,
        0.0028887887436345673,
        0.00016392251124063893,
        0.021616840677941496,
        0.023053157359853915,
        0.001625074491430132,
        0.01709201936701417,
        8.136807937070045e-05,
        0.003296015409470425,
        0.00017802051147248888,
        0.0020314779581007856,
        0.0029036630715726726,
        0.002034590797815359,
        0.007396602403921422,
        0.06246103504435062,
        0.0056800012013814094,
        0.0010223912806657898,
        5.1652963973826624e-05,
        0.03663434254054665,
        0.0013484213894207403,
        0.0009325052562180548,
        0.009883442058139808,
        8.288530249700834e-07,
        0.006100760574665187,
        0.001695262904262978,
        0.0039892093999533505,
        0.005746968851283761,
        0.00026730175484313364,
        0.006343277575252782,
        0.030857283825349337,
        0.020833614934718275,
        0.004120929201869349,
        0.010026271993691544,
        0.007980168973306967,
        0.01880393118861809,
        0.0009578165214774835,
        0.002832411173275504,
        0.04826830415135067,
        0.013628963283426037,
        0.005143160567041354,
        0.019416146752216163,
        0.038411700289327784,
        0.05298431172838909,
        0.005130704680501959,
        0.001131953766653974,
        2.27887921432383e-07,
        0.0008966146827209294,
        4.317299589139633e-06,
        0.0005693294729983811,
        0.010371193877224379,
        0.0021451330523060844,
        0.0001832718087025479,
        0.001078845935649378,
        6.617108034518889e-05,
        0.00074505803189984,
        0.00013783503418231447,
        0.0230668334854869,
        0.00020876871033367374,
        0.04027811698623383,
        0.002052462842312374,
        0.007752280522170016,
        0.0013836849638383744,
        0.00014219722349008388,
        0.0007971474122595063,
        0.00029317630599771905,
        0.005211549568991685,
        0.0009724832601747084,
        9.47771403756935e-06,
        5.239803965049788e-05,
        0.0015573100103746912,
        0.0009932822747470004,
        0.0071279062140104385,
        0.01670388759740538,
        6.844862508980493e-05,
        0.0007069437528907307,
        0.0002069540153661302,
        0.007559618539718008,
        0.008196408870477274,
        0.01369938775941101,
        0.003591180683216964,
        0.00015251538733645754,
        0.0016664436788689084,
        0.002599825684303518,
        9.46859569732854e-05,
        0.01691161810587825,
        0.010001384292566888,
        3.856510378337316e-07,
        0.003186978100784475,
        0.00158365557041184,
        0.002004224560095869,
        0.0035167065012359166,
        0.0018941340115095741,
        0.0027599788502796372,
        0.006849734804819775,
        0.012588633075990091,
        0.004015049114707963,
        0.011332168056839662,
        0.0047825529816914155,
        0.0009496292691283076,
        0.004800816316267483,
        0.00012209100495722266,
        9.838904669953304e-05,
        0.00022904758876821245,
        0.011106980056151206,
        0.031707280409116835,
        0.02432616358351012,
        0.00013472147286963985,
        0.004806757564247395,
        0.006393589923701302,
        0.001256666063883704,
        0.01090845608006469,
        0.0004029057100493194,
        0.005034896691537521,
        6.111975584436261e-06,
        9.687787662463733e-05,
        0.000138189316286581,
        7.877021782500317e-05,
        0.008350892383516198,
        0.00046959833584950944,
        0.0065561337315630346,
        0.0013667731095826498,
        0.00023201759503777006,
        0.004920238357388955,
        0.0050642875914012975,
        0.004489980485934332,
        0.0008676633868857888,
        0.003568969770933963,
        0.0019627087657728254,
        0.005141677778747557,
        0.0026107914841604967,
        2.0192249137043127e-06,
        0.0030672052466865904,
        0.006706509580012507,
        0.00010695550978021218,
        0.0015425752767486555,
        0.02371153201297334,
        6.197053370524732e-05,
        0.0003336301676912864,
        0.007500961495638049,
        0.0027031441467933693,
        0.00011231700569573298,
        0.008865096160081257,
        0.00040959613300436487,
        0.0004116671888681359,
        0.001835949086700969
      ],
      "leverage_array": [
        0.07437318481619179,
        0.025953027021789588,
        0.053795998942949376,
        0.01965628695067117,
        0.01934776135502918,
        0.016098680861344878,
        0.01697505918509397,
        0.049628523000377185,
        0.057725926607009245,
        0.017115579164872857,
        0.01510729659668612,
        0.01657521446848555,
        0.02869628622834368,
        0.05725112023211683,
        0.027500937152477003,
        0.05081283483936305,
        0.019300212013182525,
        0.02070969293395982,
        0.017245740921019728,
        0.02036525903593306,
        0.05491930332361211,
        0.07041310024879743,
        0.022762640849973315,
        0.021932649569968942,
        0.01989347002545875,
        0.03218817624077794,
        0.3644326192187106,
        0.019224411183448604,
        0.01455513885525149,
        0.07424859227258265,
        0.18549832171358388,
        0.04666099049987778,
        0.04165244916822623,
        0.060838259948919976,
        0.0450395215441792,
        0.05630717762817422,
        0.08998010538590576,
        0.061935884249145576,
        0.047444110869335705,
        0.05623684480881484,
        0.09221495055628384,
        0.06877388694439827,
        0.038672216351701365,
        0.04671871098570787,
        0.08023264757681911,
        0.05490415785487353,
        0.038023823240884276,
        0.047114325116135225,
        0.08451841324089271,
        0.05271147698806357,
        0.02792336704685032,
        0.03195472322625213,
        0.07364107345363438,
        0.06418077957209767,
        0.040894959282925976,
        0.061606500743911025,
        0.08621687326068606,
        0.023603607180424934,
        0.040517887378605004,
        0.015542064315036151,
        0.017414855099127602,
        0.015667758217126793,
        0.015289976428682017,
        0.03917683320270663,
        0.03512612687192118,
        0.01346919857640061,
        0.014001738678940522,
        0.015860828924659648,
        0.02720539418967062,
        0.032764956957044324,
        0.0509325109291768,
        0.020739195982968833,
        0.016595379942037795,
        0.01698074012156496,
        0.01899226599154587,
        0.026861667846710374,
        0.039153540364323905,
        0.02413459982385796,
        0.023472561674187598,
        0.024962341637038407,
        0.040759590965350936,
        0.033059785512367004,
        0.0468117815101753,
        0.05310682761549367,
        0.02150922606367189,
        0.02048353578526784,
        0.01797478062116145,
        0.015426587951419077,
        0.03171070588983219,
        0.049923619460643304,
        0.026105751802965156,
        0.014970831900074644,
        0.01458140889702362,
        0.02763894483699461,
        0.02085131583654367,
        0.030529504865316665,
        0.039695910406414694,
        0.019514980369546686,
        0.019839426908311912,
        0.022661295375942393,
        0.025031893764328746,
        0.03075369419272249,
        0.03764558102338428,
        0.029245156346244736,
        0.030464296442915352,
        0.03325461566949138,
        0.05988358048782172,
        0.05086854130577969,
        0.083270484791435,
        0.015565686099891556,
        0.03946451414862415,
        0.029782955493366688,
        0.02436346706900174,
        0.03186408036629393,
        0.036477619038746835,
        0.0356441637754626,
        0.046810265305179774,
        0.02999104404450787,
        0.03704378066917642,
        0.040714622306474976,
        0.06334480367183747,
        0.05868341173429673,
        0.03237054647409722,
        0.03824861176330765,
        0.01522893330630555,
        0.01733435194276442,
        0.015118832087210328,
        0.0166657601885357,
        0.025082877522390537,
        0.04418063052139392,
        0.026071198642418934,
        0.0138169057835103,
        0.013545746634096238,
        0.02614285011566435,
        0.019232266307867,
        0.01985888847551144,
        0.04064184164125089,
        0.019112467664506715,
        0.02228209763778315,
        0.025066836326575786,
        0.02184248940704856,
        0.041352657467244605,
        0.021091932552174314,
        0.02288078652494334,
        0.02480719130636385,
        0.022857443823649005,
        0.0355470424010495,
        0.06774219996017458,
        0.019963780063427704,
        0.03403388046167045,
        0.01432838162066398,
        0.01635012373314962,
        0.10847462322414259,
        0.027070095293838695,
        0.0465527035043778,
        0.01825597775400406,
        0.02035567183787395
      ],
      "studentized_resid_array": [
        0.3678932769861388,
        -1.3729538163338597,
        -0.9976881345781079,
        -1.65600415617735,
        0.5575304494438692,
        -0.4655592835133474,
        -0.3367092590608297,
        1.0816046621462028,
        0.4285341760162033,
        0.09252773985095758,
        0.3474227559770483,
        -0.47281763771367535,
        0.5904987811990172,
        -0.5329758433737785,
        0.18589724395627816,
        -1.5639776132312566,
        -2.7060450832385214,
        0.6778012573838614,
        -2.457434409184912,
        0.15274982031583895,
        -0.5820888552234108,
        0.11836037892859126,
        -0.7222397267618007,
        -0.8807747631939934,
        0.7744962522108382,
        -1.156441417543041,
        0.8075166565570108,
        -1.3218437146883713,
        0.6432020474583106,
        0.06195680876859133,
        -0.9823027744050545,
        -0.4054433141199488,
        -0.3577543105541547,
        -0.9565091742491143,
        0.010234520757390913,
        0.7822439995589713,
        0.3197801414793349,
        0.600818416775978,
        -0.8311973459780121,
        -0.16352849164842007,
        0.6108294229547083,
        1.5913392794559715,
        -1.7752784119621563,
        0.7091240402024591,
        0.829583222596095,
        0.9073244914679948,
        -1.700025392854169,
        0.3399265341494791,
        0.42788291834180875,
        2.3140298839735847,
        -1.6977096172927642,
        0.9666665214392072,
        -1.2124437687373226,
        1.8477584610809976,
        -2.7912600086434836,
        0.6835588029435814,
        0.2674706291533826,
        -0.007495789983112394,
        -0.355888558559921,
        -0.04037248344365422,
        0.4378417023053399,
        -1.9966900757467563,
        0.9099257931678425,
        -0.16369162853335653,
        -0.42052177199080704,
        0.16997817526654557,
        0.5597938167897488,
        0.225814442606567,
        -2.2544771508142736,
        -0.19168135833989608,
        2.1473003160371786,
        -0.7614852148845274,
        1.6700150584638893,
        0.6920641427412619,
        -0.2092616025219809,
        0.4151186301881011,
        0.20710986262461561,
        1.125426136100385,
        -0.49145662946705654,
        -0.04697381242831226,
        -0.08573334431753281,
        0.5215110081470888,
        -0.3473405231028225,
        0.8725462228922061,
        -2.161051675471332,
        -0.13968404320832845,
        -0.480162501489157,
        -0.28065502276784093,
        1.1783742397181665,
        -0.9672102272452426,
        1.763300013135628,
        -1.1923435114110292,
        -0.24790723115176935,
        0.5918172152472477,
        0.855103010672613,
        0.13387791198375834,
        1.5744029422304,
        1.7481506421463042,
        0.01065649169556412,
        0.9075941938990885,
        0.6070778193187065,
        0.6143560038016918,
        -0.7333114022281603,
        0.6129275103016018,
        -0.7248217256151928,
        1.0937667988530997,
        1.0896097011467836,
        -0.6692126027844293,
        -0.8644571417261554,
        1.3508201220230571,
        -0.371332254900053,
        0.9684885769490069,
        -0.17072270618783444,
        0.13349021263324418,
        0.1899177312537197,
        1.3463675916010065,
        -1.9873530158170083,
        2.200182730943497,
        -0.1444864200932304,
        0.823449539537178,
        0.7520674700265211,
        -0.3467583283787931,
        1.4032203071067975,
        -0.24577940917269775,
        -1.402130722327692,
        -0.04544390656197362,
        0.19396900633742106,
        -0.22048466831257696,
        -0.13509379222794754,
        -1.0414433701155048,
        0.32346744435075286,
        -1.6857985251505465,
        -0.771753328812371,
        0.22700686503784948,
        -1.2290499475299455,
        1.226665728452354,
        -0.796480465919144,
        -0.5156371564443631,
        0.9691442284370481,
        -0.6755508271002366,
        1.1768860626482267,
        -0.6013391112441927,
        -0.023634080181571163,
        0.8858815048720884,
        -1.260155892754039,
        0.16509691209296973,
        -0.49986896550381216,
        1.4037343489088068,
        -0.13466394245025223,
        -0.23761418861498348,
        -1.7719739925718734,
        0.9877223448991107,
        0.07417649091727517,
        1.3868743812295061,
        0.22364489649813638,
        0.3634072532356595,
        0.7269730553010048
      ]
    }
  },
  "cross_validation": {
    "mean_r2": 0.032822492201811014,
    "std_r2": 0.22485626441261575,
    "mean_mae": 0.5621879578325869,
    "std_mae": 0.0639914540303112,
    "mean_rmse": 0.697529584136864,
    "std_rmse": 0.08790479360032792,
    "fold_metrics": {
      "r2": [
        0.04834275821315759,
        -0.37914466666046476,
        0.17432316101404555,
        0.2834269400779549,
        0.03716426836436182
      ],
      "mae": [
        0.4650138682447119,
        0.6562455676693665,
        0.5273791632972773,
        0.5698794393723022,
        0.5924217505792764
      ],
      "rmse": [
        0.5743842338730699,
        0.7689422284641939,
        0.6137616474405035,
        0.7323068760743483,
        0.7982529348322045
      ]
    },
    "n_splits": 5
  }
}