{
  "title": "book_wg_1",
  "n": 2,
  "formula": "pred_weight_gain ~ metabolic_weight_Limousin + metabolic_weight_Simental + tdn_silage_over_mw + tdn_rumput_over_mw + tdn_slobber_over_mw + total_tdn_mw_2 + day_diff",
  "independent_variables": [
    "metabolic_weight_Limousin",
    "metabolic_weight_Simental",
    "tdn_silage_over_mw",
    "tdn_rumput_over_mw",
    "tdn_slobber_over_mw",
    "total_tdn_mw_2",
    "day_diff"
  ],
  "dependent_variable": "pred_weight_gain",
  "summary": {
    "r_squared": 0.5292984685965698,
    "adj_r_squared": 0.5050711838919815,
    "f_statistic": 21.847205539146852,
    "f_pvalue": 1.4362204931264443e-19,
    "aic": 933.0252484507673,
    "bic": 956.7837548473753,
    "n_observations": 144
  },
  "coefficients": {
    "Intercept": {
      "value": -16.422339020209535,
      "std_err": 59.36869664969311,
      "t_stat": -0.27661612848114336,
      "p_value": 0.7824948288244217,
      "conf_int_lower": -133.8275448691274,
      "conf_int_upper": 100.98286682870832
    },
    "metabolic_weight_Limousin": {
      "value": -0.0902046478735529,
      "std_err": 0.03637081857423785,
      "t_stat": -2.4801379625105984,
      "p_value": 0.014354262197168115,
      "conf_int_lower": -0.1621301520967303,
      "conf_int_upper": -0.0182791436503755
    },
    "metabolic_weight_Simental": {
      "value": -0.13302073612967172,
      "std_err": 0.03999227690917625,
      "t_stat": -3.326160609253784,
      "p_value": 0.0011323566647105411,
      "conf_int_lower": -0.2121078943099083,
      "conf_int_upper": -0.053933577949435124
    },
    "tdn_silage_over_mw": {
      "value": 113.63571808275685,
      "std_err": 67.12471049936367,
      "t_stat": 1.6929044049111257,
      "p_value": 0.09276317396867327,
      "conf_int_lower": -19.10747653759441,
      "conf_int_upper": 246.3789127031081
    },
    "tdn_rumput_over_mw": {
      "value": 113.47088953558097,
      "std_err": 72.22742083579345,
      "t_stat": 1.5710223101217073,
      "p_value": 0.11850112490571499,
      "conf_int_lower": -29.36322490015479,
      "conf_int_upper": 256.30500397131675
    },
    "tdn_slobber_over_mw": {
      "value": 80.02906598417536,
      "std_err": 67.13217443009715,
      "t_stat": 1.192111929392476,
      "p_value": 0.23529333086975368,
      "conf_int_lower": -52.728889012833264,
      "conf_int_upper": 212.78702098118399
    },
    "total_tdn_mw_2": {
      "value": -17.41071584393971,
      "std_err": 19.976811584038465,
      "t_stat": -0.871546281081758,
      "p_value": 0.3849919010693825,
      "conf_int_lower": -56.91607487292568,
      "conf_int_upper": 22.094643185046255
    },
    "day_diff": {
      "value": -2.4327859522012885,
      "std_err": 0.5081389888158707,
      "t_stat": -4.787638826673135,
      "p_value": 4.345630745984648e-06,
      "conf_int_lower": -3.4376616855158186,
      "conf_int_upper": -1.427910218886758
    }
  },
  "diagnostics": {
    "normality": {
      "anderson_darling_stat": 0.4086019955956033,
      "pvalue": 0.3420292019831667
    },
    "breusch_pagan": {
      "lm_stat": 26.638421441961068,
      "lm_pvalue": 0.0003870824483956748,
      "f_stat": 4.409845880469192,
      "f_pvalue": 0.0001924461686009787
    },
    "white_test": {
      "stat": 47.41555756063842,
      "pvalue": 0.049843608633645245,
      "f_stat": 1.6364111501155147,
      "f_pvalue": 0.030656494355029047
    },
    "durbin_watson": 0.8004327568099674,
    "vif": {
      "Intercept": 14042.381001252686,
      "metabolic_weight_Limousin": 10.99834721171531,
      "metabolic_weight_Simental": 10.89154229731149,
      "tdn_silage_over_mw": 500.64644622041214,
      "tdn_rumput_over_mw": 195.8727351857267,
      "tdn_slobber_over_mw": 402.3885610531401,
      "total_tdn_mw_2": 482.7452559989366,
      "day_diff": 2.338199943014994
    },
    "reset": {
      "fvalue": NaN,
      "pvalue": 0.30178513025790366
    },
    "influence": {
      "cooks_distance_max": 0.28346077724233504,
      "cooks_distance_mean": 0.009112059368375662,
      "leverage_max": 0.4260148407425138,
      "leverage_mean": 0.055555555555555566,
      "cooks_distance_array": [
        0.01819557659816911,
        0.018321167979375087,
        0.00659222243165511,
        0.0031653223973620347,
        0.0022294794069000106,
        0.0007003927144417685,
        0.0014617831152246804,
        0.02194397653566523,
        0.0059514243219756435,
        4.94339265605072e-05,
        8.443254057930109e-07,
        0.00016777492944706853,
        0.0006624559072805458,
        0.003807851024005244,
        0.011903459717487673,
        0.011067669992910676,
        0.012853632703773684,
        0.014912726820114276,
        0.013290951017213896,
        0.00408356765206242,
        0.0001882386304405944,
        0.00031549993685856296,
        0.0018149945060917051,
        0.001560687025355338,
        0.0017752833281992038,
        0.0022600496348114904,
        0.27030415685653225,
        0.0010503788056129503,
        0.005701647500515703,
        0.28346077724233504,
        0.0005532754515421689,
        0.024833317240753657,
        0.000519115871268161,
        0.000757399001899358,
        0.0032144968033348187,
        0.00015614183904962776,
        0.001585696212828986,
        0.0016651564631057607,
        0.008795110431746822,
        0.00020966946093422677,
        0.0001851719160388712,
        0.004922139146670124,
        0.0004548379393793798,
        0.0005824729920520094,
        0.033331644254625925,
        0.0034345315156562484,
        0.0004515137134538008,
        0.03279997881632653,
        0.00951105014149142,
        3.04359372769479e-05,
        0.0024907075610035205,
        0.0023076424658977444,
        0.0004952161959884084,
        0.0001517820201945025,
        0.0026217118883903874,
        0.0003628817747604992,
        0.010448107298115458,
        0.006235689676624386,
        0.00021378602153901023,
        6.404551676339804e-07,
        0.0020141546742245093,
        0.0017337845606769284,
        0.0169247894931756,
        0.018923988570007395,
        0.005301788124576658,
        0.006724218856855368,
        0.001121871868810432,
        0.00038718514414607275,
        0.0019225274162212678,
        0.005822014386377973,
        0.0012591536381032402,
        0.0048055898723120645,
        0.0007726239192249626,
        5.8695892193620795e-05,
        0.004797314990932628,
        0.002572583837993801,
        0.0024005752782019886,
        0.0018795530582711357,
        0.0006234279572739016,
        3.143147930163981e-05,
        0.00596006474147107,
        0.013164514668150175,
        5.593236184307529e-05,
        0.0002054086274327652,
        9.433332341434756e-05,
        0.00028700112501103424,
        0.021958068678891683,
        0.056641375901188194,
        0.0067657558037120934,
        0.008035614768567926,
        0.004044446585864557,
        0.0018241827101778555,
        0.0005699695753336938,
        1.09338255981204e-05,
        0.0006410555897160182,
        0.002971655603996782,
        0.005804010258853242,
        1.1951095901939205e-05,
        0.006300716429223258,
        0.001688528398083111,
        0.0035369947811644304,
        0.00011856292621491979,
        0.0002323757149218131,
        0.0012493249252653303,
        0.0005805093156362786,
        0.0012434172292446152,
        0.0030059979784502013,
        0.0003060918988572491,
        0.00013133142144636464,
        0.00016709997479628116,
        0.00888446160211895,
        0.0014903368748359616,
        0.0004413854549839944,
        1.9114608429382655e-05,
        8.125008729590597e-05,
        0.0005230859095660074,
        0.0005314959299933597,
        0.00013167543397274634,
        0.0033530126425204898,
        0.00623490693753629,
        0.009466449628228613,
        0.010177114001544819,
        0.0104220983570579,
        0.005178284702224218,
        0.00017317972804601259,
        2.6826545561874624e-06,
        0.0005399282498816519,
        0.003102230118594085,
        0.00010111676171158417,
        0.00026768395861853856,
        0.0012966083959357357,
        0.0037093927024100365,
        0.0046448157550784816,
        0.0048143001851327005,
        0.00290886037083371,
        0.0023440249193926828,
        0.020573281976871045,
        0.0007479884344589209,
        0.02003611996614376,
        0.04652563823271404,
        0.006994126641251311,
        0.0204716760853846,
        0.006657229921670491,
        0.008491745068892189
      ],
      "leverage_array": [
        0.04047802410326805,
        0.051787035557038466,
        0.028918172322484587,
        0.025944848159233924,
        0.02437559807278522,
        0.022053713518418505,
        0.038879365925527654,
        0.09039422946544096,
        0.05141800379599393,
        0.02352996626504536,
        0.02337286177809325,
        0.039367234227764454,
        0.05787965902140363,
        0.029730703188219937,
        0.0472050438470224,
        0.023366013402872365,
        0.02214172378367857,
        0.022675497007836998,
        0.022055743154756557,
        0.0375059542066174,
        0.0751999849048185,
        0.04898875111405543,
        0.024296390055217526,
        0.02535417303028245,
        0.03735690827638502,
        0.05140840865425006,
        0.32226560725125797,
        0.07247378521774694,
        0.07641941623722259,
        0.4260148407425138,
        0.06983615113180586,
        0.3560486854806513,
        0.06526926786492698,
        0.06245977665032498,
        0.0588706776954,
        0.072629202171543,
        0.06280269828438056,
        0.05819274301519162,
        0.07617019671397712,
        0.05650597546210612,
        0.05411611536639627,
        0.06261049063301728,
        0.05146731686034367,
        0.05117150284224731,
        0.06538513456831613,
        0.07386850018617785,
        0.07511962703459685,
        0.07195916926782525,
        0.05512886603353388,
        0.05450356274060325,
        0.06522307696862766,
        0.04407516904081227,
        0.04683206371736337,
        0.04834019052507921,
        0.05011328847328261,
        0.05852508883541274,
        0.09086980736769945,
        0.06882722881020764,
        0.05205056243326789,
        0.05564236114240395,
        0.0786430092734769,
        0.10359350944587264,
        0.03451308993367547,
        0.05125441506707115,
        0.0234234582560216,
        0.022468806000140173,
        0.023212709144003252,
        0.024422926186401683,
        0.047384695809166655,
        0.057045668299002594,
        0.02560723532893952,
        0.027719731822332228,
        0.030545410212041102,
        0.061304240576362856,
        0.03940040706154074,
        0.0530333524690047,
        0.02872588493363909,
        0.026909650310003363,
        0.022924487318855602,
        0.02249105415266306,
        0.07478233142365753,
        0.06505744577400341,
        0.024387889233143306,
        0.021682496811261,
        0.02309749099193753,
        0.04211562243655442,
        0.023684360346739708,
        0.037701027683557195,
        0.02372882798113876,
        0.029214954412609517,
        0.03336605119440868,
        0.03376282046250595,
        0.044925192687530036,
        0.03991145362313453,
        0.03420009488278494,
        0.03843842873311829,
        0.04339118364359071,
        0.13562155810858745,
        0.2845121303067324,
        0.019031239248044257,
        0.10299853959550154,
        0.022460106043398403,
        0.03309298347371056,
        0.03996803413990202,
        0.0370923223655327,
        0.05167773514740642,
        0.0429183721163936,
        0.036187450106841504,
        0.04063909136760516,
        0.04647243920452426,
        0.12041749060016979,
        0.04474346264133189,
        0.06102715043721797,
        0.044568264222150406,
        0.048140375017703074,
        0.054220764272331134,
        0.05227810346768505,
        0.08235928401584336,
        0.08330413969231981,
        0.05279910044783434,
        0.0550007296168753,
        0.056974822090229915,
        0.0836944883550092,
        0.044400639676736145,
        0.02275288625292249,
        0.023694124176575015,
        0.02512259533157271,
        0.02423516641596757,
        0.056131123292381235,
        0.06365299640522726,
        0.03901986529208401,
        0.025605625893768844,
        0.022838013196101348,
        0.043912604335378025,
        0.06112933945925908,
        0.03422795136942813,
        0.04478267806128689,
        0.018261738790825405,
        0.022250935442401587,
        0.11960283325251853,
        0.022436879868683424,
        0.04247365982195295,
        0.023608134975440398,
        0.03211646506194378
      ],
      "studentized_resid_array": [
        -1.8746650163200853,
        -1.6485008999741073,
        -1.3345874671403775,
        -0.9748569237135178,
        -0.8440159716962017,
        -0.4970807551521325,
        0.5362599079344238,
        1.3328932331361028,
        0.9367845252369552,
        0.12764387822233927,
        -0.01673810360101335,
        0.1803306310264858,
        0.2927176424428979,
        -0.9970550353820636,
        -1.391154583572845,
        -1.9432780463306334,
        -2.1595457073042925,
        -2.303197582442555,
        -2.2017995473735352,
        -0.9150691958860562,
        -0.1355942925877545,
        -0.22057940082493954,
        -0.7624321097335878,
        -0.6914594441572331,
        -0.6035435001911897,
        -0.5761788390370263,
        -2.161109971600089,
        0.32685851336817,
        0.7412421793885715,
        -1.761411695920267,
        -0.24196182656441018,
        0.5980067323712743,
        0.24302919569076087,
        0.30056942141129317,
        0.6397811667930025,
        0.12583417550596498,
        -0.4337917117462437,
        -0.4629787479389658,
        0.9232798642183794,
        -0.16675433181180424,
        -0.1603344830531787,
        0.7666536596940395,
        -0.258070433482613,
        -0.292953097216743,
        1.97296919795682,
        0.5855090219772053,
        0.21014302817345187,
        -1.8560571697549886,
        -1.1432617968556804,
        0.06475301736258988,
        0.5329832866264932,
        0.6313668919202687,
        0.28299690754273954,
        -0.1540555840270423,
        -0.6291150131541037,
        0.21534406904019848,
        0.9139107884477511,
        0.8205403666155431,
        0.17585782121916677,
        -0.009290784847939772,
        -0.4331859517697451,
        -0.3453169777125423,
        1.9666128033689725,
        1.6853075454632873,
        1.3335927626956465,
        1.5374746640204031,
        0.6131334137360992,
        0.35061569716704544,
        0.5546419048123091,
        0.8766895206466978,
        -0.6177038874936528,
        -1.1627351362438991,
        -0.4416016656845393,
        -0.08448408945766847,
        -0.9670780603176394,
        -0.6047941017488786,
        -0.8047732944129032,
        -0.736142997192927,
        -0.45971585394537606,
        -0.10415922719624768,
        0.7668921845148998,
        1.2325907941894296,
        0.13330734219972773,
        -0.2713660085508805,
        -0.17802015287229417,
        0.22772072188671127,
        2.7554011872276187,
        3.5423179597436567,
        1.4991073318037822,
        1.4677384460950675,
        0.9679488947786938,
        0.6448622663766642,
        -0.31031074395388525,
        0.045702370414938576,
        -0.3793600161419889,
        -0.7700147143589653,
        1.0118440047024626,
        0.024594322347053093,
        0.35488743444072657,
        0.8334993288898892,
        0.49503338960928706,
        0.20246229063568247,
        -0.23224636755281314,
        -0.4885963640941998,
        -0.3460906852291247,
        0.4259599374254231,
        0.7310508326477515,
        0.2545011783547152,
        0.15692255317399062,
        0.16502255462521426,
        0.7192535499015077,
        0.5031374759971236,
        0.23227537400878698,
        -0.05704496682975709,
        0.11295529176149526,
        -0.2692511600145982,
        -0.2766916476565871,
        0.10794278025803522,
        0.5418900496770842,
        -0.9455808191125861,
        -1.1419709884313096,
        -1.162350945022435,
        -0.9551116124118623,
        0.9438586304048915,
        0.24309158852353044,
        0.02962776103572,
        -0.4081511177093608,
        -0.9996093951605141,
        -0.11620630336780621,
        -0.17685318525435378,
        -0.5040451425618583,
        -1.0631733764279336,
        -1.2636717459502786,
        -0.9151794230937857,
        -0.5964215316137509,
        0.7261341477007632,
        1.8913383205318595,
        -0.5657582592836499,
        -2.715416675794017,
        1.666005412047658,
        1.5697413025760243,
        1.9409360499685029,
        1.4907888668553506,
        1.4364228458631396
      ]
    }
  },
  "cross_validation": null
}