{
  "title": "weight_test_adg",
  "n": 2,
  "formula": "pred_adgLatest_average ~ weight",
  "independent_variables": [
    "weight"
  ],
  "dependent_variable": "pred_adgLatest_average",
  "summary": {
    "r_squared": 0.0006179811199934493,
    "adj_r_squared": -0.005829644808264645,
    "f_statistic": 0.0958463048057677,
    "f_pvalue": 0.7572881562872659,
    "aic": 364.71965335331106,
    "bic": 370.8321449640077,
    "n_observations": 157
  },
  "coefficients": {
    "Intercept": {
      "value": 1.0668142111158558,
      "std_err": 0.25899450495751475,
      "t_stat": 4.119061179660376,
      "p_value": 6.171432660530393e-05,
      "conf_int_lower": 0.5551997990109243,
      "conf_int_upper": 1.5784286232207874
    },
    "weight": {
      "value": -0.0001548710109637121,
      "std_err": 0.0005002446427030307,
      "t_stat": -0.3095905437924919,
      "p_value": 0.757288156287321,
      "conf_int_lower": -0.0011430478405344226,
      "conf_int_upper": 0.0008333058186069983
    }
  },
  "diagnostics": {
    "normality": {
      "anderson_darling_stat": 0.30397189539536384,
      "pvalue": 0.5674894808792925
    },
    "breusch_pagan": {
      "lm_stat": 4.433468842449134,
      "lm_pvalue": 0.03524081622761881,
      "f_stat": 4.504183619865993,
      "f_pvalue": 0.035401273957782746
    },
    "white_test": {
      "stat": 4.438361606133766,
      "pvalue": 0.10869811752666601,
      "f_stat": 2.2401033921122306,
      "f_pvalue": 0.10990520389565135
    },
    "durbin_watson": 2.2636971359592573,
    "vif": {
      "Intercept": 17.846865769383747,
      "weight": 1.0000000000000002
    },
    "reset": {
      "fvalue": NaN,
      "pvalue": 0.011732609966104441
    },
    "influence": {
      "cooks_distance_max": 0.09290394677691567,
      "cooks_distance_mean": 0.006456850362919039,
      "leverage_max": 0.041661122810194365,
      "leverage_mean": 0.012738853503184712,
      "cooks_distance_array": [
        0.004761508718773861,
        0.0019350642565229828,
        8.002772003628136e-05,
        0.002887009993789898,
        0.004772743970388058,
        3.878661509987865e-05,
        7.497851352519779e-07,
        0.002509663351625582,
        0.00017474851491378063,
        2.0646764625650612e-05,
        0.00019749326003477865,
        0.002084552275178713,
        0.00010523838097761397,
        2.990367918534808e-08,
        0.0026709194158417424,
        0.0012593971748897535,
        0.009296672476086258,
        0.005191086753337322,
        0.008160516906202578,
        0.0010573721250506836,
        0.0007749904037743787,
        0.0004167087981192492,
        0.0016476199150834763,
        0.0028058647431647736,
        0.0022573605461761906,
        0.009881780004805855,
        0.0007687082639524844,
        0.008863154580271738,
        0.003242571925912416,
        0.0008704703927247284,
        0.04264442362810175,
        0.0012980648882259195,
        0.0015995759153232285,
        0.030387671268644563,
        0.004361766847978591,
        0.0006013219426215988,
        0.005109420721571926,
        0.00040524283639947187,
        0.018633309223994823,
        0.0026941147302385966,
        0.001183035256725578,
        0.004645592315154025,
        0.0496843823221503,
        0.001579289416147202,
        0.000539699980303111,
        3.5960907618169536e-06,
        0.036427656263571605,
        6.212100352881103e-05,
        0.002701858612866877,
        0.023223250011819647,
        0.0335496483783477,
        0.0036695804986897522,
        0.02632239520850478,
        0.009080660303322134,
        0.09290394677691567,
        0.0027485692593144815,
        0.004406631866411788,
        0.0018826791957924215,
        0.0002526863874579166,
        0.0007585356406358916,
        0.0026096287343796982,
        0.006524648561283743,
        0.003832875497213055,
        0.000315652039041372,
        0.0032736960471413225,
        6.286385002988771e-06,
        0.0005209233609488519,
        5.260715985042578e-06,
        0.03461452866981986,
        0.0010769407211299042,
        0.03250781036305943,
        5.169127716722286e-05,
        0.012621809448043595,
        0.0032616717636541736,
        3.499690950258684e-06,
        0.0005295692757299196,
        0.0003033338908815073,
        0.0016394383873211044,
        0.003993936496261887,
        0.0009185953060833905,
        0.0031718256082116543,
        0.00043256029663963497,
        0.0002793309891253813,
        0.013374390359886416,
        0.0072777606519015626,
        0.001166439550637919,
        0.00010273433664161619,
        0.0001400881858332869,
        0.004061583788409154,
        0.0044656901841609595,
        0.005281604965786514,
        0.006608259892747803,
        0.00041911079233142057,
        0.0002977804695615505,
        0.002367255343798915,
        0.0023274710440234587,
        0.01468488292956001,
        0.013772286811932554,
        0.0010251271071324943,
        0.0071924517200209585,
        0.00433542206831887,
        0.0023957892438803367,
        0.010314865304591409,
        0.0004319880894658702,
        0.008846560025367309,
        0.00822627830477379,
        0.005098448053339182,
        0.014259869924833054,
        0.0008784904155822095,
        0.00900510192490775,
        0.0001087463113141389,
        0.006539789934520526,
        0.0002708202639834792,
        0.0013746867243623066,
        0.0015373681511205682,
        0.009892143595673492,
        0.056541039651972956,
        0.024610146483969513,
        0.002745040909253813,
        0.0024707535005189735,
        0.00017987444037217835,
        0.009489021928874596,
        0.02189767404619898,
        0.0005760781802249115,
        0.0022969624456592856,
        0.0008872860621290644,
        0.0011696063643531855,
        0.00012958462079119948,
        3.1969161577318255e-05,
        0.005974366284393468,
        8.959384762769459e-05,
        0.011249690288835242,
        0.002621325058417911,
        1.3646714249339484e-05,
        0.008077571393173073,
        0.012093643473235577,
        0.0002298570598309897,
        1.7472202957211209e-06,
        0.005048233726921335,
        0.0003226381956178315,
        0.004026199471212995,
        0.003200851918898342,
        0.0017645126032663858,
        0.0004897709516778867,
        0.012633322468033776,
        0.00016294258321716506,
        0.007405249250745538,
        0.01661669846998055,
        0.000843766192393245,
        0.00031353926100331905,
        0.0038811090643412222,
        0.006158889859119819,
        0.0009169240440957237,
        0.012534571621052117,
        0.0025863050643041238,
        0.0024917388377004553,
        0.006280779535579194
      ],
      "leverage_array": [
        0.013483705459745102,
        0.00980611465163574,
        0.009051168353498978,
        0.007974526891260214,
        0.007630046699900781,
        0.006499622379247354,
        0.006376138733122926,
        0.0066132552526231665,
        0.007746210537675264,
        0.008753490069711004,
        0.010075108492163257,
        0.012073694523765967,
        0.013153311152212743,
        0.009363266651633008,
        0.007897211061039569,
        0.006690641312378875,
        0.006492297843909447,
        0.006594186853395964,
        0.0064776971235674,
        0.006425300082959278,
        0.007047217595757367,
        0.007537328587240664,
        0.008358050382303708,
        0.008981261874285548,
        0.009504330776238658,
        0.012073694523765967,
        0.013211719300796034,
        0.011691122913036318,
        0.01154955921333407,
        0.009017550960683456,
        0.017639758475434014,
        0.020574747987104583,
        0.018341699977370667,
        0.021361505158323874,
        0.022169466246863823,
        0.02034285559961632,
        0.016892113347809067,
        0.029002914537806648,
        0.025613349774230236,
        0.025164310905653856,
        0.02283110193816666,
        0.025343290335564792,
        0.020419941022939203,
        0.02258139826012905,
        0.01855641719182919,
        0.018341699977370667,
        0.015661157473548033,
        0.017364918971509144,
        0.014923150944441702,
        0.022415989337303335,
        0.016234700072245804,
        0.017708998449348257,
        0.01392990935106983,
        0.02579444959587324,
        0.020265982215466646,
        0.02463246155607802,
        0.02011287156468692,
        0.01242756669993043,
        0.009882891200061094,
        0.008302873737731382,
        0.007083055727506024,
        0.006396714906445454,
        0.006412018462365445,
        0.006666749224546438,
        0.007099033622019545,
        0.007305352734651105,
        0.008215499957633664,
        0.009879548274191564,
        0.011498754492377007,
        0.012276461237433887,
        0.009921597533033576,
        0.0068179566549256285,
        0.006458855754818013,
        0.006903219632323988,
        0.008446125107184217,
        0.009802808461215328,
        0.01192709698708044,
        0.013589190221427294,
        0.01722289378272743,
        0.018478424456935923,
        0.020645728573034337,
        0.022657220632275023,
        0.014238768555000766,
        0.011786558908703847,
        0.008448696588622318,
        0.008448696588622318,
        0.007118272597982875,
        0.006531040912331047,
        0.006374557623186154,
        0.00706427756533822,
        0.007152758000840578,
        0.009431831746726559,
        0.009540898349754521,
        0.0107365237707714,
        0.01331517550936915,
        0.00895095229257202,
        0.007307079300759542,
        0.006374557623186154,
        0.007651253723527819,
        0.009254294858477424,
        0.012576135525642834,
        0.016293866699807993,
        0.020182690121924793,
        0.020801771036789846,
        0.02488975434572132,
        0.02605977313285234,
        0.03213285381072103,
        0.03913879164724987,
        0.007083055727506024,
        0.006634935110100748,
        0.006538690934552673,
        0.007134637835393694,
        0.009275319393358685,
        0.011132424271974226,
        0.013868505912815597,
        0.017155156450750195,
        0.02249142436655202,
        0.020182690121924793,
        0.02831395320969026,
        0.030791931449985474,
        0.03614546138033829,
        0.041661122810194365,
        0.012997947078754662,
        0.008885201781153415,
        0.007495134682567708,
        0.007172688197497208,
        0.006478284890753253,
        0.006440857410603126,
        0.006912285157836399,
        0.007605047551493337,
        0.007628044617923976,
        0.0086590541696343,
        0.008358050382303708,
        0.008817507532294842,
        0.010399030877924717,
        0.009363266651633008,
        0.007031820715589791,
        0.00660405585881235,
        0.006376285674919388,
        0.0068882800544752005,
        0.007428704430283673,
        0.009467975241896005,
        0.009996248287454958,
        0.010954348101929794,
        0.01331517550936915,
        0.013153311152212743,
        0.01509951851093189,
        0.011979975370117385,
        0.007922770965273242,
        0.006845964193513457,
        0.006403942606059036,
        0.006384803977296768,
        0.008917971017276115,
        0.007136199091981111,
        0.0063845835646020735,
        0.00703036966534972,
        0.008566526622116452
      ],
      "studentized_resid_array": [
        0.8338877609630337,
        -0.6239029175654894,
        -0.13195552395378815,
        -0.8467422300047102,
        1.115098050712657,
        0.10854429877398498,
        0.015237382749534836,
        0.8676161335325246,
        -0.21093357766972562,
        -0.06816199255993294,
        0.1963886034122572,
        -0.5828227934571868,
        0.12526392319895155,
        -0.002507352236414849,
        0.8183207313331844,
        -0.6102724568538282,
        -1.697003977578121,
        1.252920970161435,
        -1.589946069678192,
        0.5706050419760507,
        -0.46614314491424835,
        -0.33031477723694724,
        -0.6240385104637594,
        -0.785930882928726,
        0.68475568487553,
        -1.2742267739157882,
        -0.33789637893723834,
        -1.2261156440681347,
        0.7439230489586104,
        -0.43625798178256914,
        -2.2064187868804743,
        -0.3505494590380817,
        -0.41267895302335433,
        -1.6783772432967212,
        -0.6190626815969797,
        0.23992487909699606,
        -0.770173773863468,
        -0.16420763321842433,
        -1.1922909445580248,
        -0.4557045490800893,
        -0.31730115382673346,
        0.5965207614821962,
        -2.2105238572669648,
        0.3687201520536706,
        -0.23820523954081133,
        -0.01955625760909087,
        -2.16519638533532,
        -0.0835792254459033,
        -0.5959995099173467,
        1.42799121961287,
        -2.036804705102193,
        0.6368129220048818,
        -1.9477649697227875,
        0.8273579786329919,
        -3.077942347970944,
        0.46536985915894835,
        -0.6540579836419167,
        0.5457687876962393,
        0.22432240400708703,
        0.4245480154580943,
        0.8546187756138869,
        -1.4284810053169117,
        1.090556558226528,
        -0.3057989948449275,
        -0.9566845391500852,
        -0.04120022949781426,
        0.3536424239761322,
        -0.03236747983587357,
        -2.479726268407505,
        0.41517330784302314,
        2.593775129609044,
        -0.12232819038519055,
        1.9892750152811616,
        0.9685416293880027,
        0.028572938773460926,
        0.3261417662157622,
        -0.2234948482488707,
        0.486656886653655,
        -0.6739443595140201,
        -0.3114768920890146,
        -0.5473195301385375,
        0.19257737412477566,
        0.19605273766140185,
        1.5036377004902421,
        -1.3100190148001067,
        0.5220201545547949,
        0.16875977016379792,
        0.20580500345389485,
        1.1262237825897157,
        -1.121363372402883,
        1.212720789738801,
        -1.179642952616031,
        -0.29411658300135096,
        0.23353858671076164,
        0.5910713407540001,
        0.7167832552755659,
        2.017173636869655,
        2.0945883428526337,
        0.5144427833827439,
        1.2431561915949094,
        0.8242505961212363,
        0.5366116182485108,
        -1.0007646337778116,
        0.20104234122934686,
        -0.83173800726373,
        0.7831684499155067,
        0.5529583827306399,
        -0.8359437005754153,
        -0.4950732705302989,
        1.651204065261739,
        0.1812145853449731,
        1.352744201856578,
        0.2397967032752729,
        0.49297850413432787,
        0.4663989175368806,
        1.0651079518897288,
        -2.2456392417399935,
        1.5528278189271785,
        -0.43292310201922357,
        0.3933075429845023,
        0.09763073050963678,
        -0.6595181590978225,
        1.8375529760708214,
        0.3574857038217951,
        -0.778963252823582,
        0.49440358607298424,
        0.5977109316012207,
        0.1993275257486587,
        -0.09553686448281645,
        -1.2509564008250555,
        -0.1521990328365117,
        -1.613225455328218,
        -0.7877130972796802,
        -0.05521177988391563,
        -1.2420756927108163,
        1.6078539438561434,
        -0.2540172251917615,
        -0.022852825357361068,
        1.2566715005208933,
        -0.30411751102898266,
        1.0375141147125482,
        -0.817501035000811,
        -0.5899456288533458,
        0.2965137638692666,
        -1.372217863536128,
        -0.1558720908108692,
        -0.982769332493137,
        1.6649873249075786,
        0.4585123062166555,
        0.30072805960655763,
        -1.098151989565128,
        1.3886676035054701,
        0.45028104503947525,
        1.8828589460041818,
        0.8966500137486074,
        0.8381620627032559,
        1.2075134863451304
      ]
    }
  },
  "cross_validation": {
    "mean_r2": -0.2060738376782693,
    "std_r2": 0.2056742104841227,
    "mean_mae": 0.6296420470486475,
    "std_mae": 0.0947386906379795,
    "mean_rmse": 0.7852721572928018,
    "std_rmse": 0.1122142630076607,
    "fold_metrics": {
      "r2": [
        -0.10518379798319266,
        -0.5749079736004723,
        -0.05599963173525713,
        -0.013304925336245388,
        -0.28097285973617914
      ],
      "mae": [
        0.4894311942294221,
        0.6891457816964589,
        0.5434128462909307,
        0.7007009865227485,
        0.725519426503677
      ],
      "rmse": [
        0.6189840908754615,
        0.8217058724205182,
        0.6941072474214749,
        0.8708291348377422,
        0.9207344409088116
      ]
    },
    "n_splits": 5
  }
}