{
  "title": "book_wg",
  "n": 2,
  "formula": "pred_weight_gain ~ metabolic_weight_Limousin + metabolic_weight_Simental + tdn_slobber_over_mw + total_tdn_mw_2 + total_tdn_mw_3 + day_diff_2",
  "independent_variables": [
    "metabolic_weight_Limousin",
    "metabolic_weight_Simental",
    "tdn_slobber_over_mw",
    "total_tdn_mw_2",
    "total_tdn_mw_3",
    "day_diff_2"
  ],
  "dependent_variable": "pred_weight_gain",
  "summary": {
    "r_squared": 0.4353285259088868,
    "adj_r_squared": 0.4127416669452423,
    "f_statistic": 19.273530976997964,
    "f_pvalue": 1.391283792952574e-16,
    "aic": 1083.0686744548266,
    "bic": 1104.4623950922646,
    "n_observations": 157
  },
  "coefficients": {
    "Intercept": {
      "value": 45.00180030665965,
      "std_err": 13.20365915827958,
      "t_stat": 3.4082824895128034,
      "p_value": 0.000839619835150001,
      "conf_int_lower": 18.912619788601212,
      "conf_int_upper": 71.09098082471809
    },
    "metabolic_weight_Limousin": {
      "value": -0.08700271025506207,
      "std_err": 0.036898132725835475,
      "t_stat": -2.3579163450226353,
      "p_value": 0.019668298795753113,
      "conf_int_lower": -0.15990992740781326,
      "conf_int_upper": -0.014095493102310869
    },
    "metabolic_weight_Simental": {
      "value": -0.12752961334409726,
      "std_err": 0.04001070851135416,
      "t_stat": -3.187387029347585,
      "p_value": 0.001747358265246167,
      "conf_int_lower": -0.20658698558424438,
      "conf_int_upper": -0.04847224110395017
    },
    "tdn_slobber_over_mw": {
      "value": -37.70301990327451,
      "std_err": 7.077993676533923,
      "t_stat": -5.326794798965911,
      "p_value": 3.591092704649316e-07,
      "conf_int_lower": -51.688465340721756,
      "conf_int_upper": -23.717574465827262
    },
    "total_tdn_mw_2": {
      "value": 25.658007839950127,
      "std_err": 13.528332880768598,
      "t_stat": 1.8966126917548465,
      "p_value": 0.059801542443992925,
      "conf_int_lower": -1.072697217173264,
      "conf_int_upper": 52.38871289707352
    },
    "total_tdn_mw_3": {
      "value": -3.3478878139921475,
      "std_err": 5.34566207339562,
      "t_stat": -0.626281229158493,
      "p_value": 0.5320823875839715,
      "conf_int_lower": -13.910410001934544,
      "conf_int_upper": 7.21463437395025
    },
    "day_diff_2": {
      "value": -0.05122431566802127,
      "std_err": 0.00907860818641226,
      "t_stat": -5.642309329384596,
      "p_value": 8.126569442753579e-08,
      "conf_int_lower": -0.06916278598058684,
      "conf_int_upper": -0.03328584535545571
    }
  },
  "diagnostics": {
    "normality": {
      "anderson_darling_stat": 2.242023562214939,
      "pvalue": 1.039778865780592e-05
    },
    "breusch_pagan": {
      "lm_stat": 10.699206831939195,
      "lm_pvalue": 0.09812968685138884,
      "f_stat": 1.828289273122506,
      "f_pvalue": 0.09719349150573031
    },
    "white_test": {
      "stat": 32.42397236997548,
      "pvalue": 0.17947282017222582,
      "f_stat": 1.3013728638976472,
      "f_pvalue": 0.16948659282125686
    },
    "durbin_watson": 1.5188864329636742,
    "vif": {
      "Intercept": 492.8208627351334,
      "metabolic_weight_Limousin": 7.83238493725583,
      "metabolic_weight_Simental": 7.443366618887819,
      "tdn_slobber_over_mw": 3.209207945141211,
      "total_tdn_mw_2": 182.32227389179795,
      "total_tdn_mw_3": 180.72997915811087,
      "day_diff_2": 1.965748844981775
    },
    "reset": {
      "fvalue": NaN,
      "pvalue": 0.9071794141629144
    },
    "influence": {
      "cooks_distance_max": 0.27528958464178466,
      "cooks_distance_mean": 0.008685884906218567,
      "leverage_max": 0.5124027374087003,
      "leverage_mean": 0.04458598726114653,
      "cooks_distance_array": [
        0.08242592721232317,
        0.005332501634091959,
        0.009546449747644993,
        0.0023994551909971534,
        0.0015188295374151351,
        0.0008158064953825404,
        3.62663879880875e-05,
        0.0014267761098020473,
        0.005661419273591221,
        0.00027213159891357417,
        1.181379405631706e-05,
        1.6809764932105922e-05,
        1.7306742174359282e-06,
        0.010141650989945553,
        0.0017183577750411049,
        0.014319744077579766,
        0.007742816633226459,
        0.008227410729746868,
        0.008293170923530496,
        0.0051619117853867885,
        0.002248129015811991,
        0.00015970750333856447,
        0.0005861983375577322,
        0.0005636675347663665,
        0.0006830269994434418,
        0.00201387699254936,
        0.04884278389608358,
        0.000430522390253082,
        0.0009726113951664986,
        0.016021949126229073,
        0.06514029938317199,
        0.009478000231196436,
        0.0001833467771683985,
        0.002511763391480037,
        2.8381323104530237e-05,
        0.0001326722483008028,
        0.0152662048539071,
        0.00026024971996008005,
        0.0009393056735132622,
        0.00247052310497836,
        6.1420260696981655e-06,
        0.0007734441743008034,
        1.2332655708691159e-05,
        0.0009806553332723147,
        0.0046477728259846605,
        0.00015605885591499474,
        3.2197438555927378e-06,
        0.0008038293826532533,
        0.0012217282091368763,
        0.0342915302938214,
        0.002635210747883419,
        0.0001369726289496095,
        0.0019093212871205008,
        0.13042986524797423,
        0.15229704303088315,
        0.00991147690804299,
        0.004083125956410345,
        0.0005958696084200972,
        0.0033574683106171936,
        0.0010054617179783584,
        1.2117949697513833e-05,
        0.0007805923303184686,
        0.0011835701397148438,
        0.00045586566146590404,
        0.006686938086921098,
        0.0007786638832495234,
        8.76769211260434e-05,
        0.00020078885711148864,
        0.004674887181571714,
        0.006479081713501267,
        0.020071884815186597,
        0.004171072088680457,
        0.004754694469466764,
        0.0021457413692010344,
        0.00033152623077136286,
        0.0005131283982300242,
        0.0013214558086930993,
        0.00016748778977232644,
        0.001828640036804828,
        0.0009491834116163674,
        0.0007556336615478407,
        0.000267742053428144,
        0.0050179699032025715,
        0.0021294934446152054,
        0.0006302286826753707,
        0.0010128215099066455,
        0.0006865950677661633,
        0.00014778386211954176,
        0.00021510189941931855,
        0.0017953896133870708,
        0.0008273206463657872,
        6.488725550658026e-06,
        2.008464623436696e-05,
        1.3907555757224218e-05,
        0.0010653860208452855,
        0.002579878470485788,
        0.04286528741708614,
        0.014373410847260785,
        0.002622859208390074,
        0.003322363894875854,
        0.0016091309042537373,
        0.00023742106243727917,
        0.0006728954423022977,
        2.7731581162358464e-05,
        0.0018441559050304532,
        0.0011113080134052106,
        0.0016707180359469074,
        1.7918488669093898e-06,
        0.27528958464178466,
        0.0009853753485886848,
        0.0027943273673810003,
        0.00017026091292776467,
        1.182493297048183e-06,
        0.00036665964245287207,
        0.0006830669526166639,
        7.50366647882726e-05,
        0.0022532073763020383,
        0.00021978966953606412,
        0.00032548381950381605,
        0.0004273552227794303,
        1.0995037691723112e-05,
        0.0065159387205440174,
        0.0020657260260595446,
        0.0010218392309195858,
        4.884426858087236e-05,
        6.536210995911779e-06,
        1.5624034747642977e-06,
        0.0007080299951888122,
        1.1186836777115188e-05,
        2.144762747156189e-05,
        0.00018597148983259012,
        0.0052353626551530155,
        0.004946070914588409,
        0.014262385878155323,
        0.002347226243540723,
        0.0022472917470862815,
        0.001953952163439292,
        6.566325094741092e-06,
        8.675202437000879e-06,
        0.0009662951069584596,
        0.0006174938135611315,
        0.0016722114310352817,
        0.00012479396109331192,
        0.0004066195236464673,
        0.002981737860731538,
        0.0018771785833023868,
        0.004145545938415854,
        0.12061698132414113,
        0.00010448241306430785,
        8.878201956985967e-06,
        0.024997096990285125,
        0.009168680249061801,
        0.015312819768809768,
        0.003969106910714364,
        0.01411998109821665,
        0.005352393167936175,
        0.0036560685981773
      ],
      "leverage_array": [
        0.07920363673616784,
        0.022509078044464347,
        0.05096756651628767,
        0.020531511015611834,
        0.020359435737579683,
        0.019344028665099808,
        0.01928406024439675,
        0.03438678290387491,
        0.026894362153408305,
        0.015878630614755675,
        0.016733859918313047,
        0.01867813767825187,
        0.0317949773492886,
        0.04989575328723006,
        0.018337653430657606,
        0.05318488345358077,
        0.018622070248751482,
        0.018594360047258004,
        0.018467881382794853,
        0.019188810646017317,
        0.03303304533981813,
        0.025807205180487264,
        0.015447987740742858,
        0.016570475795278525,
        0.01741624928476016,
        0.028557934845272945,
        0.12813872824078948,
        0.02025187146853363,
        0.01953885016401599,
        0.0741905487167946,
        0.2320809853674554,
        0.029938386983241423,
        0.028676555525114028,
        0.08323282556055973,
        0.036607805123360586,
        0.0375206300599181,
        0.09891217574713973,
        0.08012591264958463,
        0.03823784786173979,
        0.04173918046349101,
        0.09404990524754236,
        0.09787245485401404,
        0.040577928026226326,
        0.03364942415178751,
        0.1035886105111408,
        0.07318343943408206,
        0.033753659601364394,
        0.031518220425709606,
        0.08932809160800531,
        0.08116905631012325,
        0.04571316067065228,
        0.04274142881950216,
        0.10901621579043053,
        0.09039633857104817,
        0.03596456371518308,
        0.03551281652656895,
        0.09614849288324101,
        0.03960755004783201,
        0.05980398621835528,
        0.038934114774585235,
        0.042055879860468964,
        0.043011374579898794,
        0.04489187031053538,
        0.061795515412237184,
        0.0519924227792454,
        0.046231577328056286,
        0.04974258952338925,
        0.0520081774493606,
        0.07057828737790292,
        0.028579053254663766,
        0.04947300740094593,
        0.021794495127673147,
        0.01906292694025576,
        0.018569174751758892,
        0.020216471276184082,
        0.02807691082298066,
        0.03526467707043375,
        0.024835065309768832,
        0.02210068515980845,
        0.024784596077180112,
        0.048965568884765144,
        0.03677510207454145,
        0.03282573501393204,
        0.046337519056609475,
        0.022652934060777057,
        0.021847290548495095,
        0.020330359366697928,
        0.018061109017663265,
        0.024387060373698522,
        0.02983488208795868,
        0.018610689773381303,
        0.015738901253834578,
        0.016990244187022052,
        0.03593224012529625,
        0.02871835963494819,
        0.02221536275630536,
        0.0366995034222991,
        0.019415176245258084,
        0.018754934613040206,
        0.020907620544326315,
        0.022764739214892502,
        0.03300344770345677,
        0.03895581894103661,
        0.03232439567253523,
        0.029872886104607983,
        0.031863958373206734,
        0.11603358412793577,
        0.05659464599432551,
        0.5124027374087003,
        0.02333208406644175,
        0.047113380671347946,
        0.02796085783212817,
        0.01908809584452472,
        0.022565594150011158,
        0.024350866187609614,
        0.03591006378152822,
        0.044820823626397645,
        0.03456023945855197,
        0.03187720932987736,
        0.03506160080212391,
        0.08574024019550482,
        0.06221443245104491,
        0.043535696511997846,
        0.05826126487511808,
        0.03812281339002643,
        0.041789257717156865,
        0.04350124006158982,
        0.046292582004103536,
        0.05323356784007924,
        0.06364095201771343,
        0.05280944066171418,
        0.04941837518206137,
        0.05116224574636378,
        0.08435436738624444,
        0.06341161637060162,
        0.022692938858099067,
        0.042148287497174766,
        0.019084731816029862,
        0.0193476213779711,
        0.01921282209897783,
        0.022471625252963104,
        0.036634407860060475,
        0.02250186211017919,
        0.022010859630374618,
        0.01874849440059214,
        0.019725584202325844,
        0.03552702620951426,
        0.07480986482083671,
        0.01950670301486202,
        0.03437331374540125,
        0.017555142863901342,
        0.019317812286051773,
        0.14446825829822244,
        0.023612550902478397,
        0.04998111880622064,
        0.01650972829963744,
        0.01933663271268978
      ],
      "studentized_resid_array": [
        -2.6410221367131332,
        -1.2758480421638634,
        -1.1164001294154269,
        -0.8945419148809997,
        -0.7140742912380849,
        -0.5367777238525488,
        -0.11325039996393008,
        0.5283073453150627,
        1.1992075054012876,
        0.3425900931671128,
        0.06947614845473031,
        0.07836556075435774,
        -0.019142961519226804,
        -1.1640469678999783,
        -0.8014873629621874,
        -1.3393726254855014,
        -1.700689314716489,
        -1.755526391230897,
        -1.768942217612185,
        -1.3628898751206375,
        -0.677495714264367,
        0.2047727938237078,
        -0.5101302921315694,
        -0.48267124495434527,
        -0.5181002218053945,
        -0.691278993113763,
        -1.532054684539897,
        -0.380741484525941,
        0.5832127821452029,
        1.1846123885508157,
        -1.2304233406911151,
        -1.4718885408891662,
        -0.2078330203702688,
        -0.4388828693532615,
        -0.07206678181185389,
        0.1538444072609794,
        0.9865853535097686,
        -0.144145017995309,
        -0.4055334293994403,
        -0.628834583112874,
        -0.020282706588668094,
        0.22268296607108978,
        0.04502852305525363,
        -0.4428114412892073,
        0.5293276764999086,
        0.11723336937015748,
        -0.025315797791481114,
        -0.41466156944671717,
        0.29437235271103507,
        1.657991145845906,
        0.619271681578307,
        0.14606111883143233,
        0.3295213589129843,
        3.117884839815822,
        -5.921687179547184,
        1.3767860290239264,
        0.5170821286343792,
        0.31706914731913977,
        0.6065717335406686,
        0.41566396439596504,
        0.043809734457298216,
        -0.3476533841220833,
        -0.4186887307514538,
        0.2194094780677864,
        0.923389922035727,
        0.3343385858054072,
        0.1079226451301451,
        -0.1595401139384893,
        -0.6552057196299045,
        1.2438737565913949,
        1.652464674253387,
        1.145954728891137,
        1.3118289561789755,
        0.8903710599942558,
        0.33437264670361744,
        0.35158546453186484,
        0.5017918793085947,
        0.2138755498297692,
        -0.7514953929259746,
        -0.5100464708795074,
        -0.3195609213547302,
        0.22085783066996573,
        -1.0174407151292826,
        -0.5525991490725171,
        -0.4350944040697806,
        -0.5621180450103681,
        -0.48000934433595255,
        -0.23640762988694644,
        0.244661095180282,
        0.6380121787320877,
        0.5513348262041116,
        0.053118804789109714,
        -0.08989168009504052,
        -0.05093746691111489,
        0.5009659853199279,
        0.8909324487686279,
        2.873505959856916,
        2.2857685107406485,
        0.9799638110045564,
        1.0439075222442542,
        0.6941631467912299,
        0.21996797592952902,
        -0.3398788275665147,
        -0.0759787147497799,
        -0.6462176435032456,
        0.4849249291105809,
        0.2975795966397435,
        0.014411494157971626,
        -1.3579609869685323,
        0.5360588237075796,
        0.627707205629365,
        0.20289933484497516,
        -0.02055560119951948,
        -0.33243711498167205,
        -0.4365111061968068,
        0.1183598449804866,
        0.5784778760687933,
        0.2066505705369088,
        0.26223248783158254,
        0.28605146322232566,
        0.028552131074906256,
        0.8283021731050195,
        0.5623476711200425,
        0.33902405509078204,
        0.09257274876556225,
        -0.03228191310717674,
        0.01545556400233722,
        -0.31858263184106533,
        -0.037194680291770595,
        0.04684273272704655,
        -0.1523057888369633,
        -0.8387707594553853,
        -0.8003489856503354,
        -1.0413028528969532,
        -0.49137784512808363,
        0.8222036059740985,
        0.5562411425415839,
        0.048443314670122035,
        -0.055294831960954915,
        -0.586332094598519,
        -0.4324467579721345,
        -0.5535274502922757,
        -0.1941766444573682,
        -0.3545865939257324,
        -1.0455033303435979,
        -0.8071525309482253,
        -0.8869444964910662,
        3.3389113265659858,
        0.1911180588195076,
        0.041644292743730306,
        -3.2259167218119975,
        1.8188789278734951,
        0.7957503345990774,
        1.0723884364106833,
        1.3747179149233713,
        1.500171448304234,
        1.140408296374479
      ]
    }
  },
  "cross_validation": null
}