{
  "title": "naive_wg",
  "n": 2,
  "formula": "pred_weight_gain ~ originWeight + per_slobber_dm_log + avg_real_dm_inake_per_weight_per_day_log",
  "independent_variables": [
    "originWeight",
    "per_slobber_dm_log",
    "avg_real_dm_inake_per_weight_per_day_log"
  ],
  "dependent_variable": "pred_weight_gain",
  "summary": {
    "r_squared": 0.20864728027653245,
    "adj_r_squared": 0.19313056028195474,
    "f_statistic": 13.446609873055818,
    "f_pvalue": 7.792716878235564e-08,
    "aic": 1282.1490012968038,
    "bic": 1294.373984518197,
    "n_observations": 157
  },
  "coefficients": {
    "Intercept": {
      "value": -74.10558227071982,
      "std_err": 15.576299359730866,
      "t_stat": -4.757585904024398,
      "p_value": 4.49556524585627e-06,
      "conf_int_lower": -104.87796842928967,
      "conf_int_upper": -43.333196112149984
    },
    "originWeight": {
      "value": 0.06558739868449256,
      "std_err": 0.025211155667392703,
      "t_stat": 2.6015228952523266,
      "p_value": 0.010192283543318475,
      "conf_int_lower": 0.01578048371812347,
      "conf_int_upper": 0.11539431365086167
    },
    "per_slobber_dm_log": {
      "value": -36.449910253230485,
      "std_err": 16.928796106269196,
      "t_stat": -2.153130678898784,
      "p_value": 0.03287533895857235,
      "conf_int_lower": -69.89427588532567,
      "conf_int_upper": -3.005544621135307
    },
    "avg_real_dm_inake_per_weight_per_day_log": {
      "value": 64.77877696308057,
      "std_err": 15.820209420286615,
      "t_stat": 4.094685174016298,
      "p_value": 6.826432348534642e-05,
      "conf_int_lower": 33.524524451146604,
      "conf_int_upper": 96.03302947501454
    }
  },
  "diagnostics": {
    "normality": {
      "anderson_darling_stat": 0.4764851991801038,
      "pvalue": 0.2351628911608603
    },
    "breusch_pagan": {
      "lm_stat": 3.4385256502615045,
      "lm_pvalue": 0.3288230959070768,
      "f_stat": 1.1419844000972594,
      "f_pvalue": 0.3340752517282799
    },
    "white_test": {
      "stat": 18.998771303701556,
      "pvalue": 0.02520334443943279,
      "f_stat": 2.248626824258478,
      "f_pvalue": 0.021965896599436603
    },
    "durbin_watson": 2.6638573848274,
    "vif": {
      "Intercept": 189.4674473148585,
      "originWeight": 1.0581231810675296,
      "per_slobber_dm_log": 1.0672811942133045,
      "avg_real_dm_inake_per_weight_per_day_log": 1.0712422905357435
    },
    "reset": {
      "fvalue": NaN,
      "pvalue": 0.08303504711508505
    },
    "influence": {
      "cooks_distance_max": 0.17490776131399702,
      "cooks_distance_mean": 0.007621952305069225,
      "leverage_max": 0.26899175945488585,
      "leverage_mean": 0.025477707006369428,
      "cooks_distance_array": [
        0.005075655462036417,
        0.005288213417454973,
        0.011347741365870476,
        0.00887880706527657,
        0.00146099397917652,
        0.0007737392187899201,
        0.00031050670256717886,
        0.013942759332971934,
        0.0038213806921366137,
        7.912953779353989e-05,
        0.00038842853275878675,
        0.0008988669138058516,
        0.0010684187018469027,
        0.0005058254459317276,
        0.0004034291276437892,
        0.02880393482559405,
        0.026636983552405426,
        0.002188289432719262,
        0.02224340123030652,
        0.0001812723076166003,
        0.001618440179940889,
        0.001195869265200304,
        0.0017367303620709543,
        0.0028422245853155555,
        0.002963868058136795,
        0.008234692634862149,
        0.17490776131399702,
        0.0025550200511217595,
        0.0011906899345202413,
        7.734483771691561e-07,
        0.03154002718884706,
        0.001406882507166551,
        0.0009042031272099498,
        0.005946377309633408,
        0.00010476220218210072,
        0.0072294784281430125,
        1.674252553982377e-05,
        0.008342005689095097,
        0.0067023637885903166,
        9.223774813822741e-05,
        0.0030386032642779138,
        0.03804397083960772,
        0.024664612205843085,
        0.0056503769929994565,
        0.005740249851882976,
        0.013010428128757984,
        0.02453130119485119,
        0.0012300877185870826,
        0.0003762816114807101,
        0.046477520771449295,
        0.01578274144941192,
        0.006788615803856644,
        0.02110001468903663,
        0.04780212038950157,
        0.07037297587107381,
        0.006040529844169782,
        4.0669918557738024e-05,
        6.061253543594832e-05,
        0.0008215825663031147,
        2.1475946961713246e-07,
        0.000663896456257656,
        0.012887132926075807,
        0.002520373522303284,
        4.1470255451521834e-05,
        0.0008955828458377468,
        0.00012276822468804092,
        0.0007553926796880811,
        8.719546324190867e-05,
        0.021623139186613023,
        4.980618161387483e-07,
        0.055918267300678115,
        0.0028512127633715475,
        0.0098575469460204,
        0.0012133832178678845,
        0.0003122866202626887,
        0.000817231383451597,
        0.000614998819918306,
        0.006506863619501583,
        0.0012304259409900663,
        0.00010940214636959289,
        0.00041285328177305956,
        0.00038375166172707775,
        4.5300422282249644e-06,
        0.010867611561529777,
        0.01682433208644875,
        2.2617542668482617e-05,
        0.000844971132492948,
        0.00021994320468435215,
        0.009550212195799955,
        0.005050986595318443,
        0.017249880979180673,
        0.004659900569747417,
        0.00022544815535881677,
        0.0010259944748405884,
        0.00197078966092821,
        0.0003107417848353799,
        0.023234048064607656,
        0.013475286536662247,
        3.6811773968997694e-05,
        0.0021771561339179644,
        0.0006833281984682864,
        0.0014598653929562434,
        0.004913739940851194,
        0.001068680166035786,
        0.003109227500855513,
        0.002978649102514799,
        0.0029166178024570963,
        0.0027772907594915933,
        0.0069870364875052,
        0.005774473074694883,
        0.0018460084958623424,
        0.003973854090279011,
        0.0003868862576628599,
        2.3088563541731532e-05,
        9.590552702359233e-06,
        0.009548680375662926,
        0.04154784491263749,
        0.01723524351333238,
        0.0004579996169319334,
        0.0012872015175775645,
        0.0007944005989525878,
        0.0012898208768665899,
        0.008707244377170563,
        0.00029354077666000455,
        0.005586431998034428,
        4.444124994915862e-06,
        0.00011259922606587253,
        0.00027376131568665533,
        4.6907648533517575e-05,
        0.006620477218875639,
        0.0008510377573097372,
        0.00842371950960501,
        0.0017542871430749315,
        8.515949073320527e-05,
        0.004045923112981685,
        0.007026595259151102,
        0.006642383408423527,
        0.0012756489083241293,
        0.0029380452751807517,
        0.002274754008300399,
        0.005032538366886802,
        0.0033128036237249116,
        2.7247697800665746e-05,
        0.0038648856478726277,
        0.005148882301370155,
        5.6542268444858585e-06,
        0.0018772376024390424,
        0.030752866886837992,
        1.4786363874026012e-05,
        0.0003534657670601147,
        0.009555676928866875,
        0.0033935440508242706,
        0.0013624165791386556,
        0.008296612324882255,
        0.00045042285625047245,
        0.0005141655397336074,
        0.0016714433560450442
      ],
      "leverage_array": [
        0.03948554878799016,
        0.015477741722593794,
        0.052238399838804295,
        0.01557109509423842,
        0.017086918098517027,
        0.015410248448360787,
        0.01507606358739914,
        0.0385920646647159,
        0.04104767021142122,
        0.01600553547504832,
        0.014421230736776161,
        0.014949346490817413,
        0.01522421187410198,
        0.017267502948798693,
        0.017028719820242413,
        0.050088923337005486,
        0.016868948465639924,
        0.017679665191929955,
        0.016460179158335225,
        0.01686877121355028,
        0.040774431324154176,
        0.04230408600624189,
        0.018925982383944363,
        0.019085946971351332,
        0.018450248665006174,
        0.01907785407113386,
        0.26899175945488585,
        0.00810349297956025,
        0.008489334236459273,
        0.007907704850554313,
        0.03232435061478979,
        0.03972465360851875,
        0.03424000298905347,
        0.04797588127787267,
        0.04222061018798225,
        0.04445129972441293,
        0.04380738300221795,
        0.04480364586924783,
        0.045058698690620645,
        0.04670094655742776,
        0.045540732110829776,
        0.04401737765315496,
        0.03553883495991167,
        0.03885838776000655,
        0.03626971248323486,
        0.042232119535223794,
        0.035088173498852404,
        0.03668278583603631,
        0.03604129772681751,
        0.029814417584511838,
        0.025225229030244576,
        0.026091394140472787,
        0.026162773936515143,
        0.04450015506769495,
        0.03838752219420391,
        0.05127148920936139,
        0.04013078677298881,
        0.016045850397605033,
        0.03928911437756438,
        0.013634299059406552,
        0.01628490951837292,
        0.013771183599692942,
        0.013663164673673279,
        0.03430864731853475,
        0.027997182608892876,
        0.01243972443967133,
        0.011668750159453768,
        0.012127629357263137,
        0.01278042807174808,
        0.01332178173882011,
        0.04881716426871102,
        0.020605458138897123,
        0.015901685230881563,
        0.013998496036730184,
        0.014177687279821521,
        0.024267689091646574,
        0.036543608391097604,
        0.020545057684890025,
        0.013919243501005929,
        0.014300808503080659,
        0.013906485686285476,
        0.01376150753614596,
        0.0089955283073884,
        0.046383335082829935,
        0.017350960314449645,
        0.017280260761246058,
        0.0169711570046428,
        0.014208527978245965,
        0.02431306900317899,
        0.03617928072018542,
        0.018328193126037,
        0.014385141956236726,
        0.013680811296348915,
        0.013651225523777562,
        0.01400358872962499,
        0.014038228939671334,
        0.03680292590981915,
        0.01947218938698722,
        0.0167163158852689,
        0.016223012458626916,
        0.015356384605506153,
        0.02491657009855719,
        0.03553317240606943,
        0.017708921676733748,
        0.01665900746396189,
        0.01626865980630072,
        0.01607414784756042,
        0.015566492739887729,
        0.030321870728113567,
        0.012573388172531355,
        0.03733958496264947,
        0.024296915559851667,
        0.01482751245018199,
        0.015744803136877306,
        0.014901600495144038,
        0.027572635729902678,
        0.043133960307009694,
        0.015532459116749279,
        0.015885053005121427,
        0.016049333575991413,
        0.015855012733478425,
        0.016138554471248803,
        0.015051635229964777,
        0.03655023096197463,
        0.013457795384917287,
        0.016425887433836925,
        0.014243567468184296,
        0.01434585565715096,
        0.022728798283247253,
        0.03568959037332631,
        0.020551196620382878,
        0.012956700566019538,
        0.012770581798496942,
        0.012886669625769606,
        0.013006609643366918,
        0.01890243176200168,
        0.03924070108214475,
        0.016248601848672502,
        0.016850285096245976,
        0.014695171417839041,
        0.017370447325363317,
        0.03739107419660512,
        0.018744249364477286,
        0.020627715250275305,
        0.01154308306088462,
        0.01190092154803854,
        0.012243182787217775,
        0.03509280892074226,
        0.01683012852088167,
        0.03356486968613402,
        0.013478061484467896,
        0.015775966579311552,
        0.03669888345893166,
        0.015743304845006023,
        0.04634726829377997,
        0.018194070822635716,
        0.018414015326034514
      ],
      "studentized_resid_array": [
        0.7015959565005047,
        -1.1612817792301386,
        -0.9069584072765431,
        -1.5046181945170138,
        0.5785402988213707,
        -0.44351370554860764,
        -0.2839972417187784,
        1.180228711420231,
        0.5963179601203665,
        0.139047835072812,
        0.3249053773098524,
        -0.4855214864413751,
        0.5245305470271991,
        -0.3383551496862749,
        0.30429958491905384,
        -1.4839732403127304,
        -2.535754977022917,
        0.6962085536299841,
        -2.339187120667699,
        0.20492540997877734,
        -0.3891679559547118,
        0.32811367571449995,
        -0.598832879705298,
        -0.7633518357523653,
        0.7932088408918743,
        -1.30436565351817,
        1.3829854966352038,
        -1.119394170046939,
        0.7447460706047285,
        0.01963690794354114,
        -1.961393014989935,
        -0.367786662473054,
        -0.31845760115359645,
        -0.6858288039666226,
        0.09718346217361823,
        0.7874587241508572,
        0.03810813298442156,
        0.842641751637107,
        -0.7527087881076253,
        -0.08650134266952195,
        0.5034816067497871,
        1.8319093556523647,
        -1.6453852442869124,
        0.7466051143419317,
        0.7800901522809742,
        1.0870314848319746,
        -1.6519379256549633,
        0.35843555605238064,
        0.20000862187299004,
        2.501509874879255,
        -1.5693584670914722,
        1.0068168727892723,
        -1.7850642656871338,
        2.0472492998482217,
        -2.7099407750855007,
        0.6674397648787225,
        0.062174949636314925,
        0.12153866534500361,
        -0.2826220209986812,
        0.007857509177798259,
        0.39941652739687844,
        -1.9386130530245553,
        0.8523360862695032,
        -0.0681080474240167,
        -0.35165123031728107,
        0.19682525614155208,
        0.5046555813734315,
        0.1680179982505362,
        -2.634481212838968,
        0.01210750120753701,
        2.111075976153854,
        -0.7351556727897085,
        1.5695651954619136,
        0.583430198107344,
        -0.2938344394788598,
        0.36150669430856874,
        0.2538900029613112,
        1.1148044783523163,
        -0.5892202388017039,
        -0.17312257895483948,
        -0.3412090633669198,
        0.33070850511268624,
        -0.04453326145465927,
        0.9450422253953589,
        -1.9705624127426518,
        -0.07149501794205308,
        -0.4412984974026448,
        -0.246300889948529,
        1.2403225765732593,
        -0.7325336711098717,
        1.9396883945958234,
        -1.1311263312123596,
        -0.25419940223159737,
        0.5432869547182451,
        0.7439322859245548,
        0.29458031010079366,
        1.5669846103357143,
        1.6568545983819443,
        -0.0927643001444501,
        0.7255782362460949,
        0.41750787411951534,
        0.4768302658368391,
        -0.7292850290464301,
        0.4857253581530771,
        -0.8560600952202545,
        0.8480140249845285,
        0.8442653102727504,
        -0.837363361674487,
        -0.9450626396353353,
        1.3504495329689898,
        -0.43515611246524216,
        0.798000454072203,
        -0.31971697542793986,
        -0.07573523304948972,
        -0.050194350662933714,
        1.1619500901316766,
        -1.9372814851735738,
        2.113913557387357,
        -0.3359141918963479,
        0.5605779057937715,
        0.4429474589482493,
        -0.5595672481189967,
        1.5160738616113407,
        -0.17536935339565835,
        -1.2825715858170648,
        -0.03251919912400558,
        0.17599220889405104,
        -0.27346261894803503,
        -0.08952795597167548,
        -0.8450964306235952,
        0.4016827506376584,
        -1.6104709636285488,
        -0.7354131294929266,
        0.16101739593333275,
        -1.1090214897197217,
        1.209640101046934,
        -0.8056236246367933,
        -0.5545557778496383,
        0.8272121163219566,
        -0.7800795144575527,
        1.067606604667706,
        -0.5828135029346384,
        -0.07528980286179576,
        0.8559866253357258,
        -1.3313680164084731,
        0.04319219790789772,
        -0.7773293310219234,
        1.8536887849238657,
        -0.05858848084616006,
        -0.20113211030191835,
        -1.682611608826049,
        0.9197865807448984,
        0.377154033616052,
        1.445531380834155,
        0.19193402165118914,
        0.3321719944470198,
        0.5957283090369947
      ]
    }
  },
  "cross_validation": null
}