{
  "title": "book_adg",
  "n": 2,
  "formula": "pred_adgLatest_average ~ originWeight + metabolic_weight + tdn_silage_over_mw_dt + tdn_rumput_over_mw_dt + tdn_slobber_over_mw_dt + total_tdn_mw_dt_2 + total_tdn_mw_dt_3 + day_diff_2",
  "independent_variables": [
    "originWeight",
    "metabolic_weight",
    "tdn_silage_over_mw_dt",
    "tdn_rumput_over_mw_dt",
    "tdn_slobber_over_mw_dt",
    "total_tdn_mw_dt_2",
    "total_tdn_mw_dt_3",
    "day_diff_2"
  ],
  "dependent_variable": "pred_adgLatest_average",
  "summary": {
    "r_squared": 0.2353715478812205,
    "adj_r_squared": 0.20041710435579052,
    "f_statistic": 6.733665999001928,
    "f_pvalue": 1.104177052394789e-07,
    "aic": 375.94226294385714,
    "bic": 404.876684762338,
    "n_observations": 184
  },
  "coefficients": {
    "Intercept": {
      "value": 34.13993291673876,
      "std_err": 38.209997922469164,
      "t_stat": 0.8934816742469115,
      "p_value": 0.372826351791794,
      "conf_int_lower": -41.27179515412607,
      "conf_int_upper": 109.55166098760358
    },
    "originWeight": {
      "value": 0.004813688420173312,
      "std_err": 0.0033025958043637624,
      "t_stat": 1.4575469434718362,
      "p_value": 0.14675760970269097,
      "conf_int_lower": -0.0017043558161024541,
      "conf_int_upper": 0.011331732656449078
    },
    "metabolic_weight": {
      "value": -0.00835785574483248,
      "std_err": 0.004252844693549446,
      "t_stat": -1.965238880580182,
      "p_value": 0.050969251905749115,
      "conf_int_lower": -0.016751323030759158,
      "conf_int_upper": 3.561154109419859e-05
    },
    "tdn_silage_over_mw_dt": {
      "value": -1241.0262771225637,
      "std_err": 1501.8517442028478,
      "t_stat": -0.8263307492986101,
      "p_value": 0.40974167985351895,
      "conf_int_lower": -4205.099595482493,
      "conf_int_upper": 1723.0470412373659
    },
    "tdn_rumput_over_mw_dt": {
      "value": -1215.3900480115005,
      "std_err": 1496.1725560989128,
      "t_stat": -0.8123328041656382,
      "p_value": 0.4177043431627794,
      "conf_int_lower": -4168.254849955746,
      "conf_int_upper": 1737.4747539327452
    },
    "tdn_slobber_over_mw_dt": {
      "value": -1274.6100713589788,
      "std_err": 1500.5712386501623,
      "t_stat": -0.8494165678568871,
      "p_value": 0.3968100473889147,
      "conf_int_lower": -4236.1561680025325,
      "conf_int_upper": 1686.9360252845747
    },
    "total_tdn_mw_dt_2": {
      "value": 15277.347039890996,
      "std_err": 19361.82536102523,
      "t_stat": 0.7890447700578808,
      "p_value": 0.4311535201296912,
      "conf_int_lower": -22935.392778725964,
      "conf_int_upper": 53490.08685850796
    },
    "total_tdn_mw_dt_3": {
      "value": -59185.916906478975,
      "std_err": 82874.07563263617,
      "t_stat": -0.7141668423408791,
      "p_value": 0.4760754913327059,
      "conf_int_lower": -222747.22534762806,
      "conf_int_upper": 104375.3915346701
    },
    "day_diff_2": {
      "value": -0.0012449137788016918,
      "std_err": 0.0005781808746537262,
      "t_stat": -2.1531562757887373,
      "p_value": 0.03267533495157628,
      "conf_int_lower": -0.002386018758279377,
      "conf_int_upper": -0.00010380879932400645
    }
  },
  "diagnostics": {
    "normality": {
      "anderson_darling_stat": 0.5859369920706285,
      "pvalue": 0.1252268062402119
    },
    "breusch_pagan": {
      "lm_stat": 7.013097806149504,
      "lm_pvalue": 0.5352201730881434,
      "f_stat": 0.8667958623372672,
      "f_pvalue": 0.5457047271283708
    },
    "white_test": {
      "stat": 34.76651213489204,
      "pvalue": 0.5271737260128622,
      "f_stat": 0.9512828515571722,
      "f_pvalue": 0.5537005915277275
    },
    "durbin_watson": 2.4928113358742543,
    "vif": {
      "Intercept": 623758.8217012581,
      "originWeight": 8.675533694408031,
      "metabolic_weight": 2.7125013361451744,
      "tdn_silage_over_mw_dt": 70696.35007526852,
      "tdn_rumput_over_mw_dt": 20054.24404090626,
      "tdn_slobber_over_mw_dt": 38603.79018389915,
      "total_tdn_mw_dt_2": 215262.23480331458,
      "total_tdn_mw_dt_3": 54216.51975899721,
      "day_diff_2": 1.1299004458375355
    },
    "reset": {
      "fvalue": NaN,
      "pvalue": 0.4802292996182551
    },
    "influence": {
      "cooks_distance_max": 0.05055692087723721,
      "cooks_distance_mean": 0.0059333623722507955,
      "leverage_max": 0.24146644242513632,
      "leverage_mean": 0.048913043478279405,
      "cooks_distance_array": [
        0.002535575785170995,
        0.004994750656639461,
        0.006660801283987895,
        0.004621725979402067,
        0.0009620426887674202,
        0.0003454524111282997,
        9.103555084447733e-05,
        0.009510118755571409,
        0.001994885377609465,
        9.719928324973918e-05,
        0.00031174978240589083,
        0.00044323136246508576,
        0.0014167867559482998,
        0.0006727983297515191,
        0.0004362777067054452,
        0.04761688131093593,
        0.018066145147792208,
        0.0014589131760308477,
        0.014384023908949493,
        0.00013588899908848956,
        0.001744477865495298,
        0.0005178598755854742,
        0.0013457118924654087,
        0.0020723435113526234,
        0.0024174950483551233,
        0.005331153991425415,
        0.012642133008863115,
        0.0054651079202209666,
        0.014192441685432126,
        0.0013744978672310768,
        0.03864880527884146,
        1.5734528001175715e-05,
        6.196754964037407e-05,
        0.04010060676908885,
        3.3237214005725407e-07,
        0.006504151303172479,
        0.001496493530113338,
        0.0013267883251608305,
        0.0030572764679113766,
        1.2770854267087833e-06,
        0.008808956399163658,
        0.04242548004632369,
        0.020873827627321418,
        0.0070214571174950675,
        0.007123979069823001,
        0.00368653571439351,
        0.014621726120209814,
        0.0017939362307286518,
        0.0031830677220839342,
        0.049740577645794114,
        0.013410117535773104,
        0.00912604689614986,
        0.01411499394930982,
        0.05055692087723721,
        0.039934563109378644,
        0.0144055784792827,
        0.001911453682827114,
        0.00021215607639412726,
        0.00017391608164221592,
        5.992889151373106e-05,
        0.0007119691057572889,
        0.009710064224862138,
        0.002515526934480106,
        2.5096200542351563e-05,
        0.0005263765407008949,
        0.00027128333215675445,
        0.0012924126139563662,
        0.0002683779507158016,
        0.02138884798394209,
        1.9454938583689017e-06,
        0.03743406083016473,
        0.0012272286043600986,
        0.00582698778953998,
        0.0009594058653306178,
        0.0002560261057957767,
        0.0005596432198703481,
        0.00028508085996877274,
        0.004334836176851687,
        0.001028040336269668,
        2.1185828229283047e-05,
        0.0001236838684506841,
        0.001131402612020609,
        0.0005073220810444515,
        0.006577170196561924,
        0.010708746735756955,
        7.381488294896558e-07,
        0.0003023658551262884,
        4.0872525412028715e-05,
        0.006675254997074516,
        0.006065422823831956,
        0.014057019892927116,
        0.0029177022834743003,
        0.00011865569836843603,
        0.0014734562774285761,
        0.004643042368981869,
        0.0015099673422772281,
        0.00026369859620247886,
        9.370131657588496e-09,
        0.0005615189703388431,
        0.00014269295635841733,
        1.6586719138106818e-05,
        9.86865019258485e-05,
        0.0001498880004245986,
        0.0010352426295264256,
        0.003579488831443092,
        1.1165922581932365e-06,
        2.1360693699885323e-06,
        0.0006152777250954575,
        0.00032062983658582694,
        0.014419839152969726,
        0.008582098779085341,
        7.782246333250337e-05,
        0.002269493478386512,
        0.0006667427139065067,
        0.0009550481789670946,
        0.0026295200680480292,
        0.0009193643703806159,
        0.0030468038647342463,
        0.003125900113291294,
        0.005180679049466154,
        0.04111396685190851,
        0.02023239067798565,
        0.0035123145458172363,
        0.008117764766696947,
        0.008103708911633091,
        0.0006749007855419711,
        0.00025718687015225815,
        0.00015502100582724055,
        0.006591933759837272,
        0.025787474318399638,
        0.015220872168825355,
        0.000433932393770615,
        0.001815773111858132,
        0.0019251125375406427,
        0.015089146031037691,
        0.01888028407412032,
        0.017597784326788674,
        7.296938777159002e-05,
        6.921451262611895e-07,
        0.001120326004684882,
        0.0012168482071508806,
        0.00194729635305515,
        0.019501478083668665,
        0.0012357575292070333,
        0.004236451872663999,
        0.0004670389210806753,
        0.0002407664432713506,
        0.005600601999421112,
        0.010070674073993716,
        0.009333596827656335,
        6.209030009136107e-05,
        0.003421431416782504,
        1.7480789193982993e-05,
        0.00011659100049930071,
        0.00014225186489598657,
        1.4581853659276163e-07,
        0.006640572016699902,
        0.0009049040126124161,
        0.006340245430197807,
        0.0011986358086070496,
        0.00022008023760389722,
        0.008505468577533886,
        0.005541664974980811,
        0.0038908086817603642,
        0.0008201823516159352,
        0.0032478260228639574,
        0.003570734098719384,
        0.005629064844965767,
        0.002360190373642914,
        5.356930984883251e-05,
        0.004295436394093909,
        0.007173311417373184,
        5.458717581359924e-05,
        0.0015793499721233973,
        0.016259055236954336,
        5.92368399779113e-07,
        0.00016485661106435624,
        0.004763692539874402,
        0.001969966479715582,
        0.001322122665907853,
        0.006599040032449381,
        0.00030109848464914175,
        0.00020898112368867176,
        0.0013929189363937066
      ],
      "leverage_array": [
        0.05742569610798704,
        0.02977630861211758,
        0.062417683168608636,
        0.01788541221609883,
        0.017540584656641024,
        0.01569075428776091,
        0.014462639495608153,
        0.05356504384150383,
        0.06413332740912973,
        0.02090392833709406,
        0.018048234977835503,
        0.019302037893107554,
        0.030249622175187445,
        0.05196623176270046,
        0.03320645338639272,
        0.12572615445616508,
        0.021837997878078753,
        0.022845598626377545,
        0.020265905960966807,
        0.01949575092110025,
        0.05781877550281252,
        0.0796442943554206,
        0.02916969322852079,
        0.028903113869209976,
        0.02675708991705257,
        0.034058238979940036,
        0.13030725290202658,
        0.04168492578726849,
        0.1273232814714324,
        0.15690719030630318,
        0.23562534022782478,
        0.08560948717382479,
        0.08100468838052591,
        0.1360713572898241,
        0.047950055105040044,
        0.06722037851108385,
        0.08899958293360927,
        0.10816108878830039,
        0.0595919925350782,
        0.06411122941242291,
        0.09712698240250975,
        0.24146644242513632,
        0.0461404356934219,
        0.06614634381775278,
        0.07788170289803725,
        0.09555735945415436,
        0.04013165704166225,
        0.06292138316142232,
        0.0873528446953665,
        0.08888048943572553,
        0.03634652227756799,
        0.05445472081355595,
        0.07840238414347281,
        0.17499357736711246,
        0.04278659856705719,
        0.10107607579754031,
        0.08561751904729377,
        0.03145233712539341,
        0.039092636588548335,
        0.020214816660324323,
        0.021107212120207088,
        0.02151803311564015,
        0.020938376521757857,
        0.050405780147328605,
        0.04731088506278289,
        0.025925355709514684,
        0.025298638261392323,
        0.02637510586335172,
        0.03590500058116105,
        0.030352296060172257,
        0.06167014634725655,
        0.017816801833191565,
        0.01757924276961068,
        0.02154987452454124,
        0.02347582753694978,
        0.025772983966740902,
        0.04470715294928219,
        0.025636434192151464,
        0.024210682625089977,
        0.02568641725124304,
        0.04000030696269251,
        0.06284007658963071,
        0.03569190993707209,
        0.04773177174146701,
        0.02337275438628738,
        0.018747606372852797,
        0.016359513615112647,
        0.01384954833525282,
        0.03047968318041642,
        0.05705051587621122,
        0.03087632493402792,
        0.01894879348074537,
        0.018287103330785412,
        0.03036335882143166,
        0.052591331443646076,
        0.05874667220115493,
        0.03220271620455295,
        0.038923075207908775,
        0.017443154393414352,
        0.01590498468920907,
        0.020033143024396738,
        0.017663365475309677,
        0.050958455212417875,
        0.05761422360371957,
        0.022092193786653218,
        0.021315979709364836,
        0.023171065234771603,
        0.0341333162861614,
        0.028236551766754586,
        0.046025646421783924,
        0.02651266892755694,
        0.029390678673846007,
        0.042240230290641174,
        0.03814007654037279,
        0.03022612441021056,
        0.03723952048473368,
        0.02883641736841842,
        0.030193840401166083,
        0.03396295546162257,
        0.06261802656472497,
        0.23886131387137904,
        0.10651165625180184,
        0.021221594217499952,
        0.161210279913265,
        0.10722606546019453,
        0.03731954802300614,
        0.06232729982295475,
        0.06562247834445034,
        0.034931677450782544,
        0.05021393506586915,
        0.02938340716807093,
        0.03495951320765835,
        0.038774678370509366,
        0.06129532525698831,
        0.2171966545975366,
        0.09419733109970134,
        0.029126518195664055,
        0.04691326040205425,
        0.026471775206978854,
        0.01713941879524311,
        0.01568808301695332,
        0.014115246779541452,
        0.0628978957918553,
        0.05396112137184505,
        0.0359056863672286,
        0.01929366175588033,
        0.01812373466199452,
        0.0301463368688833,
        0.05616232834065687,
        0.030111378354770024,
        0.0344380140741586,
        0.01830982734400366,
        0.016293311738087908,
        0.016206278394587832,
        0.01981746803978623,
        0.02656577668815064,
        0.05221220547873334,
        0.03212990249489696,
        0.020722798120424622,
        0.021423167987191002,
        0.030329930712608193,
        0.04510601836832669,
        0.02376657782445967,
        0.04979778955070185,
        0.026025715006195486,
        0.03326704188230624,
        0.04126454550362712,
        0.030894855437156424,
        0.0560664011355327,
        0.035804821549788826,
        0.03591132093224994,
        0.03356916661499453,
        0.03288920763154521,
        0.045210438342838825,
        0.05241128511235241,
        0.019498737816038218,
        0.03318872324411156,
        0.013723478486374611,
        0.017714494922859085,
        0.09228583871999167,
        0.033536212549118365,
        0.1658665672986902,
        0.029352014260033487,
        0.04112568166136921
      ],
      "studentized_resid_array": [
        0.6109210525426402,
        -1.2118794339339478,
        -0.9486613426573978,
        -1.5169224706606041,
        0.6953635135918625,
        -0.4406126746304632,
        -0.23564835998567848,
        1.2315701584829994,
        0.5107710436937878,
        0.20186356248295792,
        0.3897598895510211,
        -0.4491690117524911,
        0.638273658604717,
        -0.3315184565689628,
        0.33725305130354744,
        -1.7361925428047862,
        -2.748773617669956,
        0.7484622292919701,
        -2.5403650429502758,
        0.2473432691213251,
        -0.504731090006553,
        0.23144635541675462,
        -0.6338104332299196,
        -0.7907617517042983,
        0.8890681508589948,
        -1.167742198020436,
        -0.8708231869102446,
        -1.0637719047728433,
        0.9353351442018994,
        0.2571269821935239,
        -1.0626536366629404,
        -0.038780240593315994,
        -0.07931739409910699,
        -1.5193924764400013,
        0.007684658025135774,
        0.9007857143157869,
        0.3703827160525842,
        0.3129734995042053,
        -0.657881811439023,
        0.012916120939356037,
        0.8578253497342285,
        1.0958288084257912,
        -1.9872505577076733,
        0.9442496416261473,
        0.8706784222355436,
        0.5592867611170427,
        -1.7851699276569226,
        0.48929165151176685,
        0.5459896724622916,
        2.1646465301063986,
        -1.800236029940184,
        1.1956897437589138,
        -1.2237257198441829,
        1.4694777553811809,
        -2.894779644732831,
        1.0742737763146057,
        0.42763128269654205,
        0.2418307938778015,
        -0.19560851258082446,
        0.16123448986530328,
        0.5440372200664396,
        -2.010716478724074,
        1.0290640713490566,
        -0.06504515955019871,
        -0.30806232294305963,
        0.30208977478340754,
        0.6683769310903314,
        0.29782398178029057,
        -2.301247659689136,
        0.023583252044464938,
        2.291428670233577,
        -0.7794312315492727,
        1.7215317131157517,
        0.6250460680065414,
        -0.30879409726182805,
        0.43532798393064864,
        0.2335117180006126,
        1.2193900582528456,
        -0.6095644876787747,
        -0.08480201356402334,
        -0.16299355115370623,
        0.38874288855244565,
        -0.3503441511439772,
        1.0872830279215693,
        -2.024468969235412,
        0.01859373791070665,
        -0.4035332783827771,
        -0.1613908385589641,
        1.3860161362075938,
        -0.9496078154928952,
        2.0099456246126155,
        -1.167201846149515,
        -0.23878777584372388,
        0.6496825471195975,
        0.8670135162765892,
        -0.46557816562476545,
        0.26635768501581003,
        -0.0014388820870347538,
        0.5324501058618643,
        0.28114387764094834,
        0.08521132321431074,
        0.221646294653421,
        0.15806144538811712,
        -0.3894364687509761,
        1.195621168929424,
        -0.021418711089364842,
        -0.028387150102693538,
        -0.39489016800140014,
        0.31432327066154464,
        1.6481212120651156,
        1.6930116381182407,
        -0.15166154148072925,
        0.679488188621457,
        0.3880690334623336,
        0.5240539105917665,
        -0.7813267708829587,
        0.5267957779077396,
        -0.9381624099203038,
        0.8940334546441479,
        0.8347311683409213,
        -1.086422020136772,
        -1.237798747957385,
        1.2090476115862356,
        -0.6154566536810775,
        0.7783844438591816,
        -0.3948791643230103,
        -0.18609338890493912,
        -0.14055026156160913,
        1.2826139969727173,
        -2.11591715624042,
        2.149107785258718,
        -0.32750035953906975,
        0.6354032234496823,
        0.5140261601231718,
        -0.6985815869394224,
        -1.2806063387232909,
        -2.32645401751761,
        -0.1151813506359938,
        -0.01509240538284094,
        -0.7594787490422891,
        -0.828191546398766,
        -1.1070977086184188,
        1.6246328213726342,
        -0.4405544355435061,
        1.0118827673988688,
        -0.46119100749501307,
        0.34176303144822423,
        1.2757089264276957,
        1.2360343310273088,
        1.6530294135729204,
        -0.1248185709829208,
        -1.28731311575416,
        0.09718456330491623,
        0.25170903162423425,
        -0.2509653838458148,
        -0.006914731618090079,
        -1.0418363529892918,
        0.49423850192313556,
        -1.6501770021173712,
        -0.7009522011540852,
        0.25097025646081395,
        -1.2752828452807174,
        1.4356466312560974,
        -0.8166396468299294,
        -0.5245024542949213,
        0.9212467682548964,
        -0.863465395349414,
        1.2627524813285511,
        -0.5969170235006097,
        0.1136220738346245,
        1.0188610168181236,
        -1.3666912149940125,
        0.11985371589434367,
        -0.5467934680422136,
        1.6342931000358,
        -0.01632653250244613,
        -0.20732861999461266,
        -1.7659292778264364,
        0.9914803227804554,
        0.34124400325982635,
        1.3109534294304561,
        0.11640895374283634,
        0.24872503435706836,
        0.539544234140642
      ]
    }
  },
  "cross_validation": null
}